7916 19
146.94094 102.78006 -84.10215 -438.76709 -667.53251 -330.52585 46.40536 -114.14521 253.79768 -14.06024 -379.74254 -10.32717 247.75358 290.12985 -395.94441 417.84519 -2.36666 86.66156 105.96983 0
-174.31092 166.16858 -110.93671 -572.05957 0.75593 431.18615 -250.47692 358.87119 39.64637 -203.25765 -171.14508 757.86547 342.97864 706.43328 305.47280 150.04101 248.53511 285.99420 11.12765 0
-221.28945 -82.94925 115.28044 -386.10604 16.49194 215.13195 -340.44140 -409.48817 -0.86059 -274.54578 -310.33995 475.62587 223.18438 90.51613 328.14271 145.93689 132.13058 507.12538 -74.70490 0
366.74465 -347.14983 249.13804 -400.84357 70.95289 -596.67594 239.54134 313.80044 53.78520 182.86927 462.82431 -381.51444 378.91300 -56.43342 -488.67491 179.33253 199.82387 -220.21401 196.33621 0
197.86665 440.86850 -151.60279 -498.23230 -132.75922 121.53821 274.11563 292.13847 62.93167 456.27468 574.79617 421.95337 -122.11541 -147.13818 390.91757 -436.70949 341.74881 125.33089 127.70665 0
-415.09030 328.30426 -244.77005 -353.35672 -454.06239 352.95181 563.18516 123.26147 399.74848 -321.20956 490.42522 68.20605 -149.64220 112.57195 -329.44093 472.76556 -64.70477 -477.75540 -466.80086 0
202.02098 87.37250 411.30494 631.57116 -178.60936 428.71149 -18.54051 -330.75087 69.73282 -260.19845 331.03567 488.70975 307.29708 -300.49638 183.13756 -375.62420 113.90719 -506.97764 367.65969 0
136.13243 298.31377 468.40914 565.19042 -190.34710 426.33998 392.46946 -442.29147 -344.17867 -152.46266 329.20062 375.08931 124.22051 -479.65992 187.04971 -437.57441 104.91548 -692.10167 668.17010 0
71.10442 391.17836 -300.67549 218.64479 274.32472 -165.56039 -284.70878 538.10050 -489.51123 176.37614 -293.92276 146.56530 121.41563 458.08105 -127.41748 82.70564 456.55105 -70.91778 -417.59830 0
185.87059 71.18168 21.23747 -587.57856 -292.98405 247.46027 13.93549 290.40121 -312.53276 504.91103 227.57301 416.74351 -0.09310 -129.60459 355.60572 -413.48323 308.48409 353.36322 77.86468 0
345.11128 -712.07836 195.83525 -5.33711 31.77843 -130.31371 316.99983 474.73205 -233.69628 549.48048 612.41199 -196.04964 278.68266 343.86467 -444.69438 264.00654 244.11249 -207.93021 110.70648 0
-407.70750 73.60976 -254.58133 -748.13812 33.79235 306.13262 -220.48439 -191.39236 20.52522 -357.91709 -477.72631 584.06951 487.87243 238.75884 316.96445 -428.11618 330.84438 328.29100 18.03706 0
-343.34085 74.44895 -12.45610 -529.05808 16.33673 315.79257 -342.13991 -8.64180 0.01223 -262.36437 -271.73158 392.49015 531.73297 64.96682 341.94946 224.11232 -399.83623 364.40465 -248.11059 0
-83.35171 536.89544 54.03241 -340.95546 -324.94530 -158.15724 -649.95075 488.28453 113.54646 195.10851 186.95008 173.26810 387.81544 51.31740 834.27555 124.99382 875.93964 30.37070 -269.98323 0
378.22628 100.37678 -360.89403 397.34485 -179.43879 441.60881 71.95254 -163.03312 -345.46331 -134.84900 492.84238 -269.68808 -5.13972 -378.25631 -252.21720 499.86538 -195.08202 -170.57756 381.31392 0
319.83567 -336.07390 571.44100 37.87210 -318.83655 425.68111 -68.12896 -476.91878 -78.16940 -14.24204 330.34624 183.75233 570.47973 -615.66412 167.82590 -318.73213 117.73509 37.72988 326.39371 0
-402.73528 53.06353 -89.69757 -444.72998 48.12672 396.73775 -222.50360 141.30993 29.87566 -188.42752 -183.93463 110.67062 543.87648 235.62705 308.90470 -188.56559 172.64340 358.67597 -76.67567 0
39.60071 -55.40801 -606.26140 499.02209 286.93389 -420.88827 -336.59253 659.48028 -377.32336 359.30492 -411.14613 619.22096 125.53120 141.83898 -252.36265 -47.59819 417.68122 27.64962 -259.59525 0
-162.88278 295.05111 163.90732 -283.87343 -126.98910 -214.22188 -415.90053 782.63466 37.54794 280.73786 643.40480 -355.64575 359.66022 119.99453 652.43922 65.15580 484.14795 -13.13563 3.48311 0
103.76117 -85.21490 427.39622 641.63627 -265.29640 430.70344 401.29468 -406.42655 -336.81640 -337.65798 330.71721 254.40937 434.67862 -46.84363 189.87167 -382.32350 105.30199 -95.64902 404.24863 0
455.93412 -520.66538 7.51284 -47.17517 48.79437 -259.62347 577.01749 122.39723 -66.29049 826.39639 66.05408 -383.42002 157.06212 -91.38855 -243.30447 90.09505 317.05888 -231.37900 -130.37488 0
405.29931 282.02626 337.61155 176.52633 702.88676 -559.31163 -221.17238 -226.68863 570.70674 -401.05683 -334.42202 -276.40466 -350.56848 431.58573 -211.73199 -4.70059 -485.72074 622.12736 -379.62839 1
653.55377 -441.11958 247.22630 -363.08193 -12.27253 -372.63978 728.04990 -106.47858 -79.34886 435.84696 397.25377 -255.36075 183.68570 -397.34974 -494.57356 38.97635 458.45129 -257.65081 -81.60257 0
-419.58514 232.13066 323.29772 -275.39609 31.47750 361.36505 -172.18876 -232.96884 -26.45929 -265.79876 252.78412 489.52607 229.32274 373.89117 337.81030 -42.81897 15.71066 353.48142 80.85768 0
56.91289 -39.15146 -10.90519 366.90683 283.66325 -394.24440 -685.03143 162.30497 196.33885 506.41171 296.18581 28.78894 -469.74382 218.44076 249.14749 -166.28130 -209.30032 -196.54567 205.20105 0
585.27366 -464.92480 167.86702 -173.70021 99.27301 -29.93234 407.71829 -161.04476 -50.19924 456.44829 194.19669 -407.44630 217.04498 -185.55094 -501.61661 70.84840 434.35626 -288.52524 -299.28497 0
171.97122 219.26412 -33.19280 -264.68505 -180.84055 -216.06780 -503.38910 816.29892 76.45990 168.52459 289.32284 -26.63240 232.63040 133.88181 403.00396 199.98065 299.04476 95.45158 -110.73706 0
206.08990 238.13632 -83.84340 -153.31808 43.01936 -49.60870 619.14598 -163.59764 417.42419 97.07693 48.03632 157.43430 205.03261 -0.27929 -238.92055 -150.92813 -456.66856 -309.25035 -154.38035 0
-118.59832 -36.73764 32.66807 -852.14620 -89.78393 -141.81961 105.97501 -4.37429 -73.13535 -52.40083 -221.98312 172.67494 246.38326 271.15225 -371.73710 496.00958 37.84984 -265.22127 44.88592 0
480.88982 -230.00379 289.57277 -93.58220 5.61820 -370.03397 437.89889 221.10109 -10.13971 162.08829 509.50397 -446.03585 126.89904 -289.18583 -324.54898 186.87247 573.00603 -226.39414 104.50262 0
161.12640 -156.24661 -467.01808 -297.30357 589.58034 59.31223 -278.86893 -383.56269 527.40048 -192.02219 -392.67586 135.66371 -394.80647 33.60520 -568.99286 -578.47660 614.93529 -405.11293 -564.95972 0
103.01362 -227.14677 433.21758 435.42578 -168.95255 426.00637 181.40380 -111.46639 -143.95578 -414.80741 332.18358 198.65996 209.17160 -500.73232 169.33314 -293.81784 119.20223 -424.86017 450.05017 0
-49.42710 -582.77622 -18.64638 -553.27246 -605.34517 -285.97781 35.16170 -57.60203 0.22643 17.39437 -216.17602 141.76962 253.20293 66.52136 -395.52525 651.13970 90.17670 -419.86784 -7.62695 0
-37.86461 -6.72058 -64.46694 272.05714 58.06706 -410.77883 -281.91113 188.09376 543.06462 283.70174 287.96064 101.13483 -470.26843 99.86099 345.28926 599.55912 -289.93336 -103.14840 251.33525 0
385.12512 -125.67740 -480.60584 -381.06903 522.80864 95.98500 -258.56208 -146.85441 460.48370 -190.12416 -428.73858 143.24753 -255.86125 211.44649 -433.75051 -422.54986 598.53357 -361.40281 -579.46890 0
377.20309 88.77051 -410.68376 378.49982 393.59155 438.67334 -79.83067 -168.59572 -203.34812 -217.16557 993.96572 -295.59733 -25.64706 -598.87886 -368.28847 518.11340 -159.89706 -288.00659 251.35661 0
-291.00903 114.57923 -174.76107 -353.24952 -469.87241 169.50686 141.19370 -88.03103 357.36698 -158.07546 95.26125 -419.14979 330.49940 114.32193 -445.71268 414.02982 44.46258 -229.88730 -334.63091 0
437.43395 487.15956 -525.09035 -73.01576 89.10182 -426.24859 -224.54054 401.40933 237.14011 228.98720 -34.55007 -83.52285 342.32628 523.25166 212.67660 277.75636 473.15673 -267.50181 86.45927 0
573.52842 -15.02188 -24.44495 378.60028 468.77566 -443.73725 -262.22525 115.34917 158.14411 493.41429 505.72881 216.61021 -600.69833 -42.02671 150.70965 409.01228 -514.89740 48.40060 216.16965 0
32.76559 251.56243 -124.75893 -127.77187 43.14791 482.75713 340.36284 -189.83218 334.53283 210.28507 87.26551 288.20290 166.94974 743.94210 -344.48142 -457.21613 -471.24777 -540.74574 -472.17790 0
428.60812 465.18641 -312.85150 33.93088 222.15291 -344.76495 -238.37630 340.03504 186.47237 549.00755 -47.23966 -67.19329 493.77483 68.58342 201.29658 239.21501 943.78671 -107.68553 96.29628 0
176.46878 257.11014 -87.37944 -554.84916 -558.05937 -461.40972 74.67098 -50.92441 58.45805 85.99586 -145.68769 220.31282 243.83871 -128.90038 -361.17887 622.94026 41.92357 -327.88913 -261.99760 0
-31.05352 195.84942 268.68872 -469.08297 -82.32897 361.82560 -195.63249 -437.46599 742.85152 33.29539 15.52723 413.45192 210.11275 501.23577 -111.92478 -319.11769 412.23918 277.61797 -340.58426 1
183.77445 99.77897 -92.76407 652.26334 84.73659 440.54032 401.44414 -210.07049 -295.32858 -117.98894 737.45033 -253.21018 -112.51991 -689.24490 -242.84861 510.28921 -143.00614 -305.61041 230.70540 0
181.38338 90.09092 -209.38567 -642.00925 -85.20183 377.03459 368.34460 256.18344 127.22339 300.01467 368.72494 421.94599 338.50245 -175.42928 326.81581 -407.63848 -12.73235 57.63691 185.77031 0
-491.87972 85.96199 -196.40256 -745.29476 17.13773 282.81641 -307.00861 -377.77424 20.59124 -362.49982 -410.62845 279.93721 313.61269 444.13262 350.96875 -246.97141 -368.61441 191.80893 -1.84410 0
189.38137 260.09151 -115.50598 -127.67668 37.16344 102.69251 470.38134 -202.05715 371.21143 99.24588 436.47571 409.66214 310.47331 503.68951 -451.06837 -72.53328 -466.95221 -403.20045 -397.41233 0
181.69376 611.16144 -88.99410 -372.69832 -265.12872 231.53732 690.52670 174.56219 226.05290 265.99309 327.07001 408.09481 -484.39914 -288.76309 282.51904 -444.25107 -71.19964 738.48482 2.92774 0
-454.87199 582.61200 -220.66014 -475.95762 -572.00809 -161.42328 31.86679 -35.18179 402.39715 -104.72339 276.77041 -644.12687 74.25787 109.60628 -209.66596 499.82110 76.22954 -175.47956 -331.97404 0
335.02596 92.60313 -51.30644 472.84378 171.04675 435.44059 491.60937 -100.37348 -308.73168 -143.47770 556.78632 -186.30748 -139.33917 -1035.82851 -673.89653 486.54149 -160.48954 -181.92707 81.57800 0
-283.25667 197.06611 306.59508 -837.17473 18.48944 -40.55741 -448.47553 -15.16770 47.50655 -213.56432 -560.28345 514.05451 508.90280 345.22620 301.73070 -358.24722 128.84086 160.68778 -134.73175 0
-276.38174 76.86298 -145.64973 -398.49782 66.46420 152.43926 -227.36618 -569.62058 6.33437 -360.61027 -253.54639 329.07322 181.05393 463.61015 337.63178 -42.82969 195.52450 383.16051 -103.12739 0
-295.91778 109.77727 -8.78866 -492.22381 34.78680 602.24897 -380.85203 -355.93160 52.93314 -379.45066 -303.75755 318.85892 496.57526 267.15549 363.10402 24.60462 357.23171 474.59346 -54.45703 0
178.11807 571.55828 -400.49969 -551.43764 -152.19222 177.06885 445.47028 214.14738 231.42224 631.33238 728.59500 427.73586 -187.41323 -403.25598 379.41599 -369.75338 234.45227 56.87212 -2.27742 0
254.72806 327.87049 -24.49375 -101.57531 -0.66765 611.31309 642.70113 -215.49766 431.90166 188.87188 -22.45074 -35.35295 338.66819 448.93062 -244.59766 -64.78710 -396.78895 -417.74635 -393.92734 0
615.12832 -225.10335 234.43284 -313.82985 53.19151 -130.52405 168.39736 266.14930 -164.72393 225.32237 719.05431 -393.91628 200.18486 246.87687 -443.47742 219.77568 433.30808 -256.18663 -220.59472 0
139.63288 78.61341 -547.65953 576.38401 329.01733 -627.53918 41.80123 501.86624 -358.96345 210.10103 -133.43799 356.51669 123.05317 -378.78629 -412.01625 -52.41981 228.73841 1.26683 -211.11699 0
367.45594 106.38960 16.06750 259.93571 -88.41939 -82.62859 -420.44448 152.03396 -230.89831 464.43934 165.75416 146.88761 -441.62713 246.33956 180.87504 127.98856 -559.42456 195.97597 327.78883 0
44.80468 -22.09407 -530.64165 286.43695 19.96450 -53.78271 316.44304 386.78267 -515.75450 -438.95594 391.37965 -635.44179 421.73562 473.78338 366.15176 9.74469 251.84921 -28.39492 15.66452 0
165.41038 630.54306 65.39633 -168.71378 -215.72546 310.90786 652.21864 146.88504 33.20944 252.83520 521.95557 415.55997 -172.69303 -41.95524 352.45297 -428.33300 235.32833 638.63675 -43.81237 0
255.82917 52.22424 351.51191 304.93133 -340.72081 428.62198 177.93573 -348.09784 -401.07273 -238.17738 333.04146 788.30917 393.73313 -531.77179 196.20854 -382.31094 101.67331 -230.45823 413.66285 0
-294.13890 561.53501 118.29623 -425.75500 -212.47890 -158.28038 -474.91655 497.62779 -192.96469 205.84350 -69.41608 -255.56081 186.82592 237.84019 395.77782 97.06002 192.47745 -58.02488 -220.56303 0
13.07865 -109.54828 -248.22434 518.98567 253.62932 0.63493 262.31122 379.65614 -389.95012 -537.61273 488.91315 -337.69070 421.84420 478.27054 389.50851 -328.87718 266.27284 290.76497 142.44895 0
-262.89820 170.57063 -620.04329 -465.02228 -70.84720 -120.89262 -316.96947 73.58925 -726.87181 -521.74739 -279.76463 -83.46556 -27.66109 85.97682 -466.10446 -377.13724 -33.39635 340.05819 475.29704 1
186.93330 362.47829 99.52293 -585.24994 -137.33985 196.73397 649.77188 240.97439 -327.03695 464.80997 828.77841 420.27123 -272.27944 -112.98306 359.16031 -432.58217 301.05378 114.49467 88.24672 0
487.79522 470.76565 -296.21806 34.58200 83.65458 29.68666 -275.88258 399.57726 196.22415 365.67525 -20.15797 -86.79429 574.27914 234.66481 206.56608 355.47899 585.17431 97.81803 214.11084 0
153.14643 205.86985 -217.53303 -82.68294 65.40824 618.53691 579.70978 -167.66795 251.61884 496.70684 7.38971 89.23527 127.16108 504.10801 -249.59521 -1.35075 -434.91885 -260.94524 -480.98716 0
76.99560 273.02322 -457.43399 413.39568 342.71666 -356.18492 -281.49347 984.53744 -611.00722 220.96175 -237.40792 111.69937 120.89721 174.99850 64.81207 -457.00718 107.62738 9.43063 -302.51637 0
744.53824 -560.98375 176.13094 -206.17137 46.72256 -292.44302 587.14559 105.04778 -46.79392 172.73798 15.39671 -444.00477 218.28626 -592.16183 -476.19324 95.92960 281.96613 -210.34056 -56.08986 0
-132.50817 -333.61132 -63.58849 -509.82569 -274.86029 -463.44817 153.88731 72.26068 166.03281 159.64404 -317.12108 445.26629 265.20684 217.29788 -325.44997 464.37614 59.17915 -324.80802 240.85540 0
98.96798 377.45088 -374.39288 267.94651 277.74423 -608.35188 -248.06586 345.68591 -272.86989 29.40818 132.59175 607.57978 121.32353 -18.83843 -230.91122 -311.66345 739.43713 -129.58757 -663.42775 0
337.25952 111.77514 -652.13398 457.10910 104.79823 438.56402 249.95790 46.96224 -264.15799 -126.16355 987.32994 -128.03194 -19.25277 -369.25610 -335.65535 481.76363 -193.10262 -248.22051 408.81627 0
53.24530 119.73615 -138.81380 -105.23327 -9.53372 -72.94431 333.53143 -246.34088 281.47721 334.53998 369.31811 -9.58627 241.83651 481.40449 -237.86653 52.27400 -439.09151 -173.82817 -320.89091 0
162.80282 -55.28487 -124.63678 377.73915 322.57380 -359.21149 -350.79101 174.42562 492.12550 334.04186 120.18886 169.10139 -628.31938 108.70133 568.49974 179.85791 -293.74447 29.13998 264.89916 0
105.24272 153.56859 -438.72166 593.01993 313.06333 -652.66494 124.99557 657.06458 -305.52515 162.24846 193.14807 128.91349 122.15581 237.15763 -257.99974 -378.13617 528.91395 75.34818 -196.39530 0
234.63058 264.37355 -73.71811 -117.44694 -15.19552 500.85222 644.49703 -187.58080 482.99830 -27.13281 -203.85600 207.69195 422.22850 785.54718 -243.03581 84.78324 -434.38332 -188.79409 -207.64268 0
490.70021 640.89464 -135.20969 -468.59656 51.93960 -37.63106 -251.64838 635.76238 138.31869 418.37812 -28.68245 -83.66931 513.45183 666.73868 180.20623 233.51422 530.78316 -443.61141 191.31657 0
127.38185 7.37552 445.83218 409.15685 -216.96327 430.21651 368.09964 -275.73827 -236.47760 -591.17605 329.72634 253.21350 408.78019 -334.02392 181.96531 -499.94065 107.84327 273.46860 327.32848 0
170.19085 607.14633 -293.24485 -161.16400 -201.07920 195.37970 618.80371 100.96328 -75.36337 447.85721 467.83258 413.68045 -17.15329 -280.45952 392.17710 -413.75226 -21.69399 219.74031 158.38541 0
-145.13139 -176.85663 4.09191 -440.24895 -594.08459 -499.73964 -5.11155 46.70944 309.13325 109.35928 -208.21999 227.27976 259.54046 492.98726 -369.34917 449.22793 29.95847 -513.60543 84.25263 0
365.59305 -21.47686 -62.92233 292.00909 333.13573 54.25934 -527.87250 177.11511 99.78068 418.08472 393.38317 164.59664 -434.34749 44.49078 478.60881 535.37654 -591.80015 -79.70458 142.47721 0
-817.76718 475.77915 14.35856 -423.51756 -158.67896 -129.04488 -539.25294 438.24203 143.36117 270.54641 422.20316 362.70950 229.81334 23.52961 791.12830 157.67424 648.07342 148.35578 -162.63781 0
-450.13328 517.48872 -28.97935 -226.56979 -573.70924 -295.01711 473.22653 -173.96703 92.18170 -278.30097 -193.97292 -77.96074 232.35213 108.69865 -272.17306 505.00255 -257.45325 -78.08207 -474.44582 0
368.56735 538.00086 358.95673 838.80040 -350.54436 429.42948 224.76813 -376.92887 -235.30293 -452.24439 330.70350 74.36846 122.53626 -240.48704 173.21490 -271.63553 118.14643 -523.75122 399.44755 0
54.35005 173.30602 108.91931 -303.98650 -136.65234 -144.47923 -442.38984 186.24508 141.43582 296.08711 243.36082 219.85541 480.89612 177.32372 129.16316 61.19565 594.53378 -167.87235 -180.42218 0
91.48248 260.52474 -445.35182 404.14309 279.94395 -593.63918 -93.44661 593.33573 -433.60944 145.27330 21.70891 115.00912 127.40105 343.67932 -426.38509 -48.90465 800.63914 -211.69422 -144.71274 0
261.23618 281.25443 -97.01410 -159.95407 48.28586 782.92598 593.48686 -175.42537 418.49394 -243.76957 -184.82311 22.29278 69.64653 430.45873 -117.72283 -289.72649 -382.04793 -495.94523 -601.12787 0
-463.87301 132.24712 -27.21243 -276.46010 10.33367 537.23297 -434.89999 -86.83760 26.41529 -310.94122 -293.16556 311.35033 415.85348 243.49382 316.00703 -20.33138 63.65181 279.52291 -49.43085 0
-312.75079 229.87325 54.99187 -197.16256 -244.44156 -147.59737 -481.55623 29.24335 265.30068 152.76800 463.89196 -375.56436 260.43015 -244.10242 602.46852 143.18194 350.00834 -82.57392 -336.59312 0
176.37201 279.88079 -573.05824 -357.65195 509.59583 463.82747 86.06052 194.33735 -3.78422 -154.10912 45.54257 -300.83712 -120.64375 275.37254 441.07913 443.69115 -458.38159 -745.03461 99.69237 1
242.54826 -82.01041 -497.85144 383.42441 187.17934 -139.49729 152.49493 387.62438 -420.43921 -389.99883 443.42696 -212.44529 438.43636 481.96153 411.07915 -192.18359 337.69814 66.60738 -154.94353 0
113.65982 159.07918 -190.83029 -121.90949 -79.35701 227.35526 74.95682 -257.38615 203.55721 -6.41935 -40.08019 174.27391 155.15380 608.94566 -342.69633 29.53008 -498.91448 -369.29089 -406.04866 0
725.72275 -634.00784 95.71492 -181.76906 404.54665 -429.94266 -215.51383 745.91973 323.83671 725.83444 -116.45324 -741.21508 -276.99596 135.19168 496.65834 -618.47092 -554.32253 -168.81373 -269.61807 1
143.22894 -710.45620 -105.04977 612.27586 136.76021 -540.91457 -499.44857 332.33096 154.64154 -477.72098 313.76351 -427.38317 520.02499 -727.09803 729.37220 -748.20885 315.38715 164.28764 -57.91644 1
-360.62863 602.11220 6.20251 -478.03099 -437.50590 403.37311 297.03480 -239.11597 248.24540 -136.61673 -30.03560 -502.14993 289.84061 104.51708 -13.59931 189.24251 -269.37176 156.94325 -175.02126 0
238.05906 90.50100 -611.10295 325.26443 181.29596 441.47685 58.08413 -252.30440 -368.08343 -105.48583 843.78707 -136.75406 -28.94091 -616.38369 -384.53366 531.18720 -189.40292 -222.07762 246.98202 0
171.17377 469.16582 -183.18798 -671.63040 -156.57445 338.54388 232.72483 291.05598 139.98019 581.01432 544.79813 412.67133 140.65276 -320.01688 360.25170 -343.61843 -68.94990 435.83416 124.61259 0
-584.37665 340.65539 -142.01985 -524.24614 -515.97646 384.58080 318.31142 103.37546 474.48771 -169.09368 134.53588 191.72279 21.45065 110.90635 -171.52800 413.34721 -42.54081 -59.53886 -419.52572 0
344.10008 -348.21804 79.57342 -84.95031 122.64780 42.31014 252.93100 191.59296 0.42791 193.31579 619.01171 -391.51040 131.09700 -228.60727 -449.51695 389.09031 309.85015 -269.96272 129.56125 0
465.44540 303.55931 469.25673 467.55666 -254.02640 424.18159 158.42823 -357.14958 -326.05650 -259.17751 326.78094 72.96755 390.01990 -262.37191 191.78282 -255.25787 97.38959 -409.48855 340.71332 0
380.54756 -149.01526 -344.57828 -402.51310 681.07867 116.88072 -243.18847 -330.86352 455.62290 -191.14750 -229.89020 146.57418 -304.22659 275.81057 -185.91798 -597.69089 57.88032 -290.07791 -441.16421 0
46.57417 -506.08289 87.57966 -253.74262 104.03906 -113.99136 344.56849 -9.66028 23.60921 85.41425 393.91817 -341.13098 147.17937 -272.23856 -756.89232 394.14788 381.11751 -203.08069 59.58563 0
515.88127 98.54168 -547.96416 511.29542 -28.70356 436.11046 753.97991 -125.20816 -324.28602 -169.55207 611.06003 -270.40743 -125.64352 -148.19358 -673.91100 425.86713 -167.76898 -207.67067 112.12818 0
-313.37560 198.84636 84.80789 -226.53757 -241.15242 -118.95891 -663.27572 219.81896 155.44245 129.87918 592.17967 632.82439 214.26730 109.59620 112.66565 139.83662 527.96924 -111.78328 -267.00594 0
65.21073 -94.09652 -452.74803 -324.62456 279.13009 -338.18755 -404.42076 392.36228 -306.83066 102.59233 -62.15879 541.42849 117.45336 -31.86024 -263.49679 208.47733 665.45456 5.61909 -345.10627 0
-541.22617 496.14708 87.52576 -237.19840 -215.33634 -162.14373 -582.29441 589.61058 185.45923 265.66833 457.99174 177.94951 455.70605 344.98212 334.10211 48.64188 265.96056 42.93740 -208.70317 0
-81.01747 -38.18654 14.71691 -332.71082 -58.52495 -473.88911 -31.09016 -195.61845 -139.34682 5.43661 -189.19247 228.19517 240.86937 53.16999 -371.97702 601.37689 47.08818 -408.79073 261.97534 0
-221.48460 283.20569 413.30115 251.69634 -273.02937 430.56081 260.88111 -276.45805 58.82713 -256.51244 330.24428 514.39575 396.38852 -241.95100 192.01338 -350.89027 117.85995 13.25984 601.92393 0
299.10354 18.75346 73.92374 390.60564 307.67524 -92.65337 -673.50347 239.53672 629.44950 361.36732 329.24928 54.09156 -342.59498 -122.88792 320.09937 243.84365 -736.02492 -71.66257 237.89985 0
508.57956 485.41376 -249.56788 -398.25387 133.46510 -223.98344 -277.64036 616.78037 129.03175 238.12815 -6.48471 -74.50845 443.32036 376.81934 173.29350 302.65659 350.08091 -346.32924 140.01301 0
238.29326 255.72051 -28.06702 -141.61752 -9.35091 359.52543 664.11018 -199.33417 418.97064 187.29269 -140.14763 212.38486 -58.26343 658.48085 -270.00820 -14.94862 -469.72309 -188.77795 -379.99644 0
-88.14001 104.77140 -84.87865 -482.00877 -606.12425 -378.46095 113.81046 -87.38135 106.53128 157.33364 -82.41514 213.45476 245.88527 -19.84329 -340.22028 533.64602 21.46929 -485.78598 -89.10478 0
482.69053 288.34208 -165.11983 -214.69275 210.06737 151.39053 -276.68592 253.86133 69.92347 388.19535 -18.14679 -69.55541 595.15075 493.79375 245.25211 196.96339 527.85149 -434.91614 139.68343 0
145.86907 -105.87911 -260.63255 -515.65216 534.02222 147.89525 -260.89416 -289.02626 562.37936 -192.45915 -137.44370 144.01669 -335.60914 -250.25394 -173.85515 -480.10678 307.26186 -450.65551 -569.29589 0
187.77841 416.54052 -72.84957 -164.73121 -69.09491 370.48631 225.57970 -216.79322 368.57335 321.92450 -14.78118 202.40317 298.91945 356.25952 74.36818 -229.89294 -426.64662 -225.21562 -440.09135 0
110.80762 -41.00108 175.39111 326.22402 773.96106 -34.85508 -292.70231 177.67966 -89.29913 378.48397 181.81334 86.87940 -456.08124 -125.46027 205.81365 201.84302 -353.63941 -27.64859 161.66362 0
517.59127 -552.46516 275.18042 -36.15822 107.89956 -378.05281 -95.05399 223.82980 129.36190 381.37283 248.37451 -405.61374 22.24899 -640.76270 -576.16837 111.25797 450.56704 -231.02830 -256.40013 0
192.49577 284.80550 458.55080 363.72305 -414.67658 431.84045 191.67718 -384.91819 -345.73433 -61.69582 329.36678 287.18611 364.08242 -206.43182 189.48109 -342.09224 107.69834 -55.90287 236.84855 0
254.72466 -141.58044 -401.78670 294.66227 178.83920 -91.58817 206.06526 316.17977 -339.93762 -335.84052 457.76685 -474.77739 443.39905 480.45820 412.04936 -153.11045 432.46570 66.26720 -67.44153 0
-409.66138 115.06845 -23.12956 -599.88553 9.96205 274.04678 -215.44108 59.58763 41.52414 -314.76544 -391.67859 239.32523 463.35985 344.33827 358.50446 -289.52554 -58.80761 480.00164 -71.44044 0
-68.22175 -305.78455 -39.34701 -163.82093 -364.73683 -314.99102 103.85235 -84.51416 103.77783 78.43412 -256.69182 252.32970 252.24135 17.71587 -368.74485 444.79387 48.23617 -336.65294 20.28185 0
143.24546 255.16568 -3.49599 -111.92469 -41.91107 485.25755 125.79062 -157.48106 302.63329 -218.03790 -85.55826 372.04196 130.56244 423.00777 -239.69519 -98.89633 -447.97927 -273.30388 -357.02097 0
479.46748 521.23893 102.37056 -86.92977 101.77003 -295.20106 -251.47553 285.56695 49.22365 94.59424 -43.32002 -94.09456 350.90411 262.59648 182.48545 214.73775 462.95438 -393.34117 174.34840 0
502.41044 555.02363 -386.99363 -51.00985 171.09372 -190.29652 -234.97348 94.02203 122.89408 508.78746 -32.11018 -88.08308 333.93245 182.38171 197.57270 22.17524 399.69673 -276.71484 101.33581 0
106.29115 279.44818 -102.37072 -131.17027 27.91268 519.31692 381.45241 -166.23620 332.70920 128.63276 -44.71328 366.98355 324.08396 632.34021 -173.12626 242.85467 -393.00444 -307.55819 -287.64054 0
332.26185 158.69523 465.01082 756.01985 -311.26326 426.96571 190.21314 -330.70529 88.53008 -310.17684 331.16408 401.15806 194.74638 -478.71935 182.69218 -243.04631 116.88813 -203.81543 357.36954 0
180.02879 -105.04274 -248.29309 -937.57188 -151.40553 359.80364 51.61304 296.65078 311.46708 413.01759 464.00883 407.07568 -93.77574 -144.67660 340.24281 -409.68660 49.53184 318.13243 14.98477 0
56.63759 -212.09103 -510.35438 322.59327 228.08805 -77.66912 240.34144 361.33381 -304.34401 -519.95467 330.39979 -255.17747 397.74348 467.35280 321.58581 -21.82438 306.27522 -35.22100 41.37323 0
-467.12666 157.62682 -324.35600 -404.80570 -553.50741 -296.13900 243.72138 -108.26193 971.91853 72.64742 -12.17096 70.44273 88.26128 109.23672 -3.23045 144.05026 -136.69073 202.15838 -338.04537 0
292.89614 109.03247 -261.57583 423.65607 146.90443 433.54966 491.81975 -141.74735 -169.54940 -94.63044 516.79487 -298.34482 -83.52310 -658.95657 -448.04652 473.44140 -150.81723 -192.87672 137.98404 0
74.48151 122.56392 -512.09970 278.05298 298.25046 -657.92510 -454.99705 460.46980 -399.17477 48.52784 -281.01896 58.59253 121.24955 247.96054 -337.78807 -93.00394 220.54201 -226.79127 -330.13321 0
183.15007 607.64219 -209.86170 -535.32668 -278.87944 9.55683 149.33561 241.45730 -231.27053 153.70534 637.08697 410.28586 259.37889 -78.91543 338.52991 -448.02376 74.80691 -49.05915 52.47174 0
526.06053 635.42797 -194.81254 -381.65530 129.33741 -301.43403 -246.39676 439.02354 164.42104 529.60143 -54.57225 -70.89067 448.97319 401.13933 120.62234 321.50466 589.87036 -338.97052 94.78479 0
571.70425 66.12734 -35.68624 8.19576 47.70391 -189.68621 459.90155 418.34494 -509.35717 348.48664 45.13441 -307.45539 30.83707 -511.83854 -463.06599 212.99985 307.06119 -219.18709 114.73510 0
497.97476 309.23855 -352.80485 299.77007 138.24602 -156.77767 -237.89547 460.06876 160.51970 479.64778 -46.26198 -81.62140 397.93462 280.71409 184.56020 242.22430 928.45615 -473.68442 6.11009 0
21.07002 246.40301 -34.73859 -121.17165 66.61007 676.19877 367.10561 -256.76643 176.53320 265.23281 -253.28597 320.35258 307.23256 673.69500 -218.25725 -342.12183 -433.41666 -379.05063 -370.31020 0
471.67363 227.60611 -257.69294 151.68498 119.84122 -369.24490 -242.86514 398.22987 191.86283 478.15601 -44.42674 -69.06203 379.25615 591.85979 150.37126 176.76259 423.20490 -618.89194 107.84795 0
101.34374 270.00214 -459.49345 150.79962 348.69026 -584.26195 -550.66146 480.97627 -366.85211 200.90135 25.29274 538.58200 119.98674 94.15802 -300.84355 -89.02208 574.75195 -35.29371 -63.63051 0
411.30512 -437.96330 -0.51389 -221.97905 55.13640 -406.54568 -20.97645 290.29492 -87.52706 360.00475 -80.29466 -149.71019 78.59384 -375.19111 -527.99247 83.64098 529.40320 -232.00392 -61.89153 0
126.99992 149.49514 -13.12524 230.02468 212.49197 -429.78845 -201.86993 175.60004 -19.12613 375.79134 238.71982 89.40292 -281.86615 480.65441 272.18822 382.67560 -731.56251 -137.72361 134.60490 0
-29.27951 -874.67334 -75.85334 -282.16345 -190.87006 -271.98957 -137.92647 97.53570 -101.18264 160.28369 -135.42419 85.88634 248.93820 289.27139 -382.06163 474.56614 13.01449 -414.53243 -85.79536 0
175.44896 332.78545 -5.16162 182.66462 -158.62994 188.24516 289.16527 104.77004 143.21415 345.12009 439.72592 409.46861 -317.55612 -323.79272 383.36015 -427.41354 242.23636 88.00897 237.80064 0
245.84867 -188.13568 -417.06782 233.25249 43.80039 -89.15803 272.95250 308.15789 -970.67975 -521.49309 347.52713 -507.82070 408.18992 467.83179 479.28284 -119.52067 311.81815 95.62589 111.09675 0
189.44642 -208.81581 -376.02790 -530.51036 312.77893 23.00020 -233.25041 -195.83754 483.00391 -190.41600 -89.74362 149.78298 -381.49530 201.43103 -423.70843 -503.92193 322.39845 -452.32422 -511.43117 0
-24.75008 7.18526 -305.53917 365.87516 44.25091 -28.59116 302.91027 334.06404 -193.85958 -417.84645 306.72745 -954.14213 423.45877 492.76572 544.38933 -68.42176 210.24819 -154.03139 238.68464 0
187.20131 -100.23133 -77.43716 300.27873 27.12304 -214.00016 -546.43066 216.41752 340.68352 277.50539 316.52020 115.00690 -268.79528 -224.54855 451.78461 629.82449 -777.65563 -11.43648 264.94317 0
202.91040 349.16421 -9.10175 -110.32354 -34.43849 601.43318 614.39608 -135.32568 400.37850 19.27474 260.51944 214.97935 44.10068 336.04105 -327.58381 102.65357 -394.96797 -228.81313 -420.20627 0
-636.24949 -293.53556 -665.24878 -541.86704 219.76843 -702.00460 13.86479 -303.64483 -301.33996 -273.49283 294.41464 -726.31648 -743.97029 174.97356 -625.37788 198.42097 241.88607 -82.97614 287.69612 1
177.57012 864.03382 -602.08187 -665.44959 -237.14297 155.59697 534.72750 200.24734 -289.59436 441.02637 537.96098 413.27034 182.01292 -60.89082 363.94493 -305.74172 14.37512 211.52578 71.76663 0
78.68026 323.15335 -275.27187 271.71521 273.22685 -708.20840 67.58757 506.15677 -314.65060 183.37791 450.36359 728.06497 124.00207 -132.34796 -149.44330 -122.66902 781.07062 -256.31843 -354.74374 0
99.70572 268.60376 -416.64634 163.41381 337.79020 -557.65023 -193.75908 403.92674 -343.73986 136.31400 135.03200 656.17669 126.49657 214.97775 -335.43324 -49.00782 539.47863 -264.09271 -17.33197 0
193.24190 137.50170 -89.23279 -86.57687 -44.49296 418.10031 459.39306 -218.96178 293.31579 -2.11855 125.11501 509.50856 165.76097 692.54393 -150.54107 354.95209 -377.52247 -377.94622 -366.09178 0
320.88238 -65.35993 -456.48758 -512.52802 509.01898 175.65206 -288.31227 -335.85437 534.85208 -190.31131 -255.53154 141.13840 -383.61539 -29.30129 -492.77675 -710.63050 426.50481 -392.15156 -202.90757 0
487.29011 352.26795 -609.31959 -336.15386 152.10923 -318.28649 -242.61662 361.20522 207.17361 178.51750 -36.97227 -65.18055 106.24600 455.46391 146.60527 69.89277 612.51784 64.97446 137.90261 0
212.30084 -31.50258 -418.81397 144.94348 24.02860 -73.97218 188.92088 318.34224 -359.98435 -537.92089 386.25120 -601.06834 456.25507 483.56035 166.16319 -290.62332 338.18961 -48.93131 174.12957 0
383.58364 -286.67580 -26.93738 -347.66631 8.95175 -317.17305 748.39489 265.59973 -50.76175 585.54480 689.64198 -476.94685 293.58489 -19.24021 -515.89840 144.00164 459.14232 -239.27998 15.81542 0
173.18846 648.34378 -414.17521 -294.45410 -280.34664 362.71348 471.12607 363.44903 -201.97795 309.22263 549.33400 420.10897 49.21439 -67.15097 342.15376 -431.68542 227.44505 519.19989 14.53586 0
89.97792 61.44900 407.11469 416.33097 -268.61824 430.59335 152.61331 5.57006 -86.75418 -166.65973 329.44141 272.83578 221.33769 -299.11384 166.73870 -393.10432 105.81123 -673.02190 400.57122 0
430.88994 -754.37595 115.01831 -439.72919 -13.50023 -189.82648 395.87186 365.45351 -0.34224 316.09851 486.09718 -447.93978 -72.95066 113.42289 -553.67266 90.91953 447.94678 -232.39833 361.79348 0
836.60195 -625.12950 351.17630 -375.73493 70.85543 -25.23380 393.21831 488.01798 -39.60106 116.98805 637.71411 -364.74649 256.36150 -16.22304 -621.24537 71.30562 704.74260 -228.71050 59.08760 0
189.60757 530.91809 -118.35285 -191.50848 -121.36717 147.56922 321.11899 195.86423 -214.87818 234.64773 530.72063 403.45468 -89.68317 -441.66171 382.25651 -410.71828 310.60440 19.51478 40.68967 0
-323.51497 188.30632 96.73197 -261.27984 -542.44084 176.36956 547.95325 109.06809 342.06085 -135.46493 -273.71348 -343.22101 -78.93627 108.11033 -319.17505 375.67635 209.63224 -327.02049 -545.42958 0
-790.40251 50.16453 -385.51267 -291.39760 -480.61382 -20.60629 452.13889 -241.57704 270.20283 -196.22912 -40.52514 -55.30909 20.05606 108.29010 -413.84326 490.70768 32.60097 -300.18492 -226.36225 0
-117.18196 -398.72413 20.41922 -443.81103 8.36634 -208.13730 78.14853 127.54111 -23.43446 79.35209 -393.19886 46.24508 247.87022 -23.68018 -406.45782 488.59827 51.23322 -456.39475 -160.27798 0
253.07509 47.18192 517.94623 158.20359 -218.77930 426.55864 369.83230 -61.61738 86.67352 -184.79486 328.22720 230.57068 644.18773 -355.18472 185.78456 -349.46973 113.09484 -694.81462 619.04160 0
-206.76577 566.63187 79.23810 -378.77761 -206.03175 -186.56557 -406.49391 621.69113 201.69359 396.80794 601.03268 148.14545 455.92743 5.07618 210.77163 192.82038 877.78188 -18.94842 -285.78168 0
165.61126 302.73258 216.10552 -800.46406 -322.61300 398.74834 216.38492 219.46164 193.60109 453.65849 429.10559 414.56866 68.34689 -224.10289 391.56312 -360.34753 209.38427 574.93213 62.94152 0
-261.53616 -59.49342 307.12015 -876.07346 24.13295 251.93752 -349.03989 -316.62171 24.33431 -381.99244 -360.54472 275.88543 458.26065 556.05983 301.24751 -240.21066 218.53037 401.52548 -2.64282 0
231.96797 71.85090 447.43559 -240.77691 -202.43076 427.85681 264.23756 -296.12200 19.13982 39.90604 330.67707 654.84420 342.12933 -392.12133 172.63342 -225.81485 99.01513 -233.58289 368.35475 0
494.64369 475.29063 -308.28108 44.70330 178.14334 -113.00681 -240.13720 503.93077 118.17710 411.30532 -48.95273 -40.67839 341.53074 398.05637 223.84277 112.27899 948.11822 -687.82091 41.21361 0
-76.73245 463.93765 81.11806 -230.58647 -225.29695 -208.23011 -596.44278 203.74514 69.80240 280.16535 603.58826 7.81456 384.38980 190.31170 655.39612 -17.12618 510.14118 -70.78009 -215.02638 0
454.58144 383.53465 -307.46382 -464.32564 133.91098 -94.96024 -254.17966 580.96430 75.14438 393.64173 -48.09675 -50.64376 154.46726 760.51963 226.48067 343.34686 335.89797 -512.00588 144.13593 0
35.54076 185.05470 -609.70886 204.50775 296.89630 -716.39055 -287.33704 785.75185 -433.82875 381.34142 132.82110 80.64625 125.17866 95.88774 -420.89943 -135.27588 689.21955 -83.03832 -306.80160 0
294.40072 -81.25229 -393.26908 366.49447 174.67987 -74.85850 282.26663 402.79215 -591.84241 -453.32953 385.52513 -122.39546 423.65461 463.32452 477.97047 -87.66250 330.57460 188.65646 -155.59550 0
389.31665 93.29465 -704.31115 421.68321 107.82605 440.86160 624.16802 -171.48587 -317.28029 -209.00029 310.84419 -164.59757 -358.22444 -817.73660 -193.12013 477.77383 -161.59580 -233.44289 135.52388 0
517.62287 291.17663 -298.51366 -56.70994 -42.67788 369.09836 -237.23003 557.71438 260.39332 236.49685 -49.87755 -55.72437 -28.23338 541.94071 182.76610 123.17781 705.10091 -392.13100 142.31058 0
294.12680 -270.80140 355.10973 197.04602 -318.76327 426.51279 292.28136 -404.25171 -226.11305 -433.65694 328.44589 519.09572 475.66704 -111.15773 179.86141 -421.51121 117.59981 -185.06295 413.44677 0
-176.59829 -35.85797 82.21243 -271.37061 -145.48504 -43.52056 22.41785 -54.53871 147.31099 236.43085 -266.08374 226.36875 241.76868 384.74859 -388.44853 502.13677 51.88680 -437.26376 -3.55321 0
60.71916 267.59994 -335.56520 117.29453 290.15386 -74.65513 -177.08337 353.16491 -393.05317 297.60118 -96.24571 476.02553 120.48040 196.07575 31.81072 -171.79906 211.27225 -47.42439 -440.29804 0
264.64171 -181.15665 -258.77689 213.97954 83.25327 -93.48634 207.79661 355.60828 -167.96003 -581.65214 372.98688 -541.27628 451.95013 484.51607 361.84760 -91.84488 261.34180 460.93844 374.93441 0
55.08612 -310.00858 -427.61216 467.19451 292.48858 -298.25128 -181.50068 702.72803 -413.66557 50.09654 -420.07076 147.41050 131.39624 610.79884 -293.02760 -321.78494 115.17236 -68.89757 -174.08210 0
-674.25998 136.17142 -82.60562 -314.25822 -463.19057 363.30283 -25.62747 15.60334 600.14642 -214.47133 383.55656 -598.68470 431.64059 107.76109 -145.03853 346.28201 203.57207 -66.30453 -268.22943 0
41.38306 151.02506 -36.17835 -125.76116 22.73788 287.10673 510.16095 -110.68943 435.29552 206.69016 -293.67277 73.48673 233.75708 622.19873 -448.48479 -239.56060 -444.04007 -381.08605 -343.21343 0
278.07380 17.11359 -470.76115 419.46203 121.18023 -52.77858 91.78939 358.81759 -425.06351 -497.00211 436.55797 -420.19554 411.95656 476.52517 250.79176 -7.24236 386.11390 -73.69042 -33.09839 0
161.97569 160.81783 -108.27707 -81.28923 47.83031 323.29676 258.60307 -103.47439 435.53287 46.32251 -74.57665 102.88931 183.78002 319.52909 -341.32739 -249.49525 -510.25884 -250.00292 -596.19394 0
-242.08995 50.09117 -14.64304 366.11946 346.80695 -208.39013 -330.14658 244.80029 100.46729 421.71328 72.20079 160.14688 -617.96785 228.31056 405.00067 121.31759 -512.70293 -7.98116 168.30513 0
512.27203 302.43332 -136.29193 -90.90856 56.60840 -152.31403 -230.35881 324.56782 188.99578 332.82080 -47.62023 -100.72355 607.22490 512.40512 205.02209 290.53395 690.03265 -207.07864 175.76662 0
256.47262 -129.72467 -107.81888 299.29053 285.51290 -93.70138 -428.99044 69.89640 276.25287 234.71589 255.41592 55.72590 -547.84684 739.56222 365.36763 254.79640 -404.00389 -22.58003 389.31907 0
-162.18263 227.90944 74.44495 -118.57040 -155.52351 -170.13757 -288.51277 276.97172 -151.20572 207.54317 346.85409 193.00171 350.49129 135.63125 229.00079 105.44168 308.48885 -139.62310 -117.87239 0
-277.80170 53.45560 339.01955 -447.68488 7.03442 101.09609 -162.62507 -109.73487 12.18664 -360.83749 -302.20086 355.49539 -7.77579 79.35979 334.26222 -7.25151 57.19474 428.65499 -125.98055 0
-49.71485 -24.43388 -369.01005 410.22085 -56.52395 -136.38686 126.50963 312.39008 -603.17791 -466.41639 431.40105 -412.33218 422.92876 469.08781 166.20941 -155.95151 252.10944 103.33261 111.14070 0
-315.66211 112.64437 -265.43374 -354.52420 40.89043 456.97145 -347.54206 -142.01697 65.56037 -260.58587 -257.82718 235.79624 247.53205 560.97349 343.28280 -94.43133 197.91042 228.57434 -56.65764 0
-202.04415 -137.09562 -232.40494 361.67410 520.75884 -205.95311 -174.62786 -717.03976 22.89752 -685.88446 -62.73354 -157.93676 231.81635 -399.88614 -376.44170 523.43572 191.24381 575.97739 -557.32445 1
173.75361 336.97488 -194.86740 -218.03028 -58.07885 247.28091 712.05194 186.26354 368.63399 358.70649 232.13822 420.64435 -91.00299 -221.03306 391.52549 -405.68744 365.14198 212.70668 -45.30183 0
262.91080 91.96997 -193.98838 464.25141 139.48977 439.77810 171.28165 -38.38083 -336.86443 -83.88138 423.55484 -266.90977 -72.23014 -919.84970 -547.01182 480.00658 -189.06755 -230.22771 165.48693 0
190.17415 721.13986 -123.68465 -465.82162 -32.67383 188.81489 461.40194 163.52718 70.16794 436.62809 490.00111 421.18299 -79.04891 -38.28943 340.09851 -462.58438 -55.98569 45.77420 -70.77316 0
139.33703 -631.27356 217.64329 -90.12587 52.35548 -265.50258 482.52176 147.45395 92.25759 433.05603 378.69321 -394.61330 162.30981 -830.38182 -362.00826 94.59166 244.53677 -269.71033 -381.92350 0
548.44909 85.52598 -684.30290 657.27907 -416.98625 -11.00363 372.15181 430.24940 603.01863 -8.29806 -490.45104 -613.51240 282.56410 682.56019 -623.27816 -157.04897 16.07937 -506.39775 -567.47237 1
256.29091 -117.76320 -392.79139 -503.99243 461.17040 281.95943 -220.60105 -113.13869 424.76736 -190.26811 -229.45806 141.12591 -544.51864 48.68328 -472.68286 -500.61997 407.30277 -493.80973 -286.58875 0
382.45465 99.22751 -510.13419 482.14699 -40.17908 444.76870 54.55159 -118.83857 -376.28901 -210.64649 -6.45177 -212.10636 -2.43507 -446.48877 -649.25975 462.14096 -128.98555 -181.02164 -126.52370 0
313.91081 -389.11192 435.46887 496.74517 -200.63157 429.67373 113.89852 -375.93946 -150.58418 -354.46524 330.11546 156.23658 444.83992 -817.92966 190.80619 -382.47443 111.76676 -498.88604 365.45694 0
-618.74070 496.08163 -12.68567 -323.29946 -481.75816 33.59257 -112.28416 163.49921 432.66968 -209.97211 -121.06177 -106.50916 -30.17352 108.39089 -527.16625 524.59878 273.45670 -407.10258 -229.66848 0
-195.58028 -432.93523 242.95113 -166.63511 -465.11245 -171.48545 661.64943 -32.64352 730.86540 -218.91047 526.81107 486.14178 -531.74254 -331.57223 401.69655 -74.26813 -390.78991 418.79494 29.89102 1
48.26958 97.39077 -121.55159 -126.91975 109.37852 289.62977 579.22703 -158.87482 387.76855 105.38875 -468.72415 100.11170 232.65759 422.18858 -396.76078 26.47995 -366.04623 -218.98089 -412.95109 0
-240.86589 509.91630 35.33202 -97.68597 -174.04950 -113.03686 -526.21241 833.01530 12.63222 406.26013 620.70229 -27.61139 261.11251 117.54426 524.46562 159.65829 557.83781 145.55440 -1.37014 0
-340.31021 178.02089 203.25700 -800.41757 27.39679 561.28652 -383.35910 39.24031 48.26390 -100.00520 -69.23566 109.92639 293.25624 312.35715 288.69368 39.10246 214.45500 195.72033 -15.26578 0
767.58034 -391.82601 122.55370 45.31606 79.80269 -315.09780 406.97594 326.57855 38.26567 341.23077 271.94391 -326.21993 188.68607 -99.57138 -536.45947 119.46610 679.16694 -200.79893 -23.84588 0
108.09581 79.21069 465.97956 122.63716 -281.52848 431.30496 160.70914 -356.82043 -107.77557 -234.95795 328.00454 601.14217 530.34239 -389.22592 199.27175 -316.31546 121.10726 -49.20783 344.88358 0
313.04850 341.93451 548.16766 30.19052 -318.67103 427.10342 312.52222 -358.06966 158.88840 -197.25994 331.16507 937.76591 261.63423 -220.54066 184.57023 -360.00761 99.31116 -1040.14340 526.86240 0
245.89738 -195.17529 50.75605 234.04254 234.83300 -169.07222 -581.41017 200.78453 457.42090 326.27182 23.23932 90.34961 -357.81029 -23.07367 178.37468 128.95036 -215.81638 69.78789 146.79873 0
489.51256 431.39117 -248.78144 342.10850 176.91552 -357.67045 -266.99758 468.64907 230.36772 454.27493 -44.79661 -77.32427 748.70231 449.03964 255.11547 295.75962 531.48331 -626.37567 158.16442 0
97.82651 473.90634 -646.92798 533.31936 317.62065 -510.73171 -212.07400 230.87158 -380.96036 111.28236 65.54914 -112.90828 121.21946 321.96531 -250.01412 47.11590 308.33749 -180.05292 -356.18880 0
488.08634 -684.09794 -432.82750 -708.30783 -393.45595 65.26127 388.96018 647.04506 562.62453 87.51762 677.94353 112.31020 -114.45799 -115.39840 -548.07065 -122.40958 -540.77921 493.25277 513.75420 1
6.22304 275.65044 -46.92903 423.17896 -308.85772 -556.50461 -513.70061 196.48772 172.02976 280.78012 165.98523 105.38291 -287.44555 937.05056 -86.76126 347.36882 -287.70064 -20.16783 231.22914 0
-187.44544 -117.21169 -134.69148 -352.23099 -1075.82692 -350.56925 47.60870 -397.80914 -110.59105 -18.14419 -394.65270 134.47937 242.02276 739.71543 -359.25784 513.93341 17.33821 -626.47552 233.39686 0
-106.96453 -210.93213 -260.04093 -451.59408 381.58869 150.90352 -220.28383 -311.94175 403.40061 -191.77604 -182.97818 140.52938 -331.25539 -320.70172 -493.38522 -507.71030 200.68068 -380.70021 -383.42794 0
360.86938 94.24885 -719.85283 456.25237 113.31023 435.82861 387.75873 -65.68935 -340.32782 -106.46630 575.68166 -252.58394 -234.74911 -543.96230 -484.67388 529.77591 -131.19264 -216.28414 -52.76898 0
32.03762 -88.66227 -410.46435 -684.11396 499.44866 153.31344 -222.29581 -11.57937 432.89079 -190.13500 -278.20301 140.81619 -382.30122 373.94225 -533.66359 -627.85810 381.28028 -451.13795 -638.36772 0
318.27215 -108.65582 -90.92096 287.70307 142.06507 -214.61854 -571.35438 151.40635 -229.41387 402.00072 173.34864 95.84520 -154.83042 580.58482 197.57242 -74.98140 -273.92597 -134.62196 411.21250 0
-381.84738 -317.42100 35.86542 -378.09985 -310.45188 -417.94921 101.27343 19.57530 -131.28726 -75.11666 -405.16683 292.08006 244.92118 431.30590 -366.24683 480.33176 53.83168 -462.08505 30.69895 0
-96.60005 207.67658 -11.51871 -558.26093 -680.85417 -313.36174 200.03894 -140.73824 1.78925 -42.37124 -150.55086 96.39969 239.23016 548.97988 -330.90488 457.54947 48.08905 -264.47577 315.76511 0
625.52182 -373.17907 180.78999 -335.45116 -27.14770 -275.93374 300.40534 408.68545 5.14727 293.43002 472.37216 -362.65982 58.89584 -190.31828 -403.48420 260.88321 484.45850 -248.88221 175.69542 0
-142.60582 -87.03403 -471.37034 588.22956 -71.31169 360.05387 291.65324 -261.80137 463.18021 209.25260 -530.57145 -74.71006 -348.31879 -325.91915 327.48752 714.80689 19.74881 -133.59446 530.85627 1
310.87037 -135.20724 -375.64260 -505.77292 527.61801 184.66620 -265.46985 -362.00943 430.54281 -192.33522 -197.39258 146.15190 -309.46692 629.60129 -156.90187 -494.79990 321.57678 -323.99777 -442.36797 0
45.24395 -73.64238 377.39269 467.40313 -376.87706 427.76096 323.70430 -318.54619 -580.22457 -144.29032 330.72711 295.63796 385.91442 -729.90287 171.76339 -360.66769 117.53942 44.33484 269.09534 0
-365.11603 334.53097 -3.36824 -431.25119 -212.30741 -247.31302 -372.04877 875.01666 26.34400 353.44498 702.29742 -32.11183 125.07382 199.58196 268.09130 182.08335 530.76743 -118.35392 -186.13613 0
647.09082 -703.78082 89.65640 -78.97469 95.61031 -375.90800 202.45810 231.79027 354.59615 26.90678 357.07142 -366.53860 214.03352 -132.03403 -273.51588 182.05372 280.79994 -247.41601 285.43930 0
-463.30947 12.77403 -112.05938 -378.67912 -483.06088 69.01276 202.96016 102.78729 491.15757 -143.55699 607.04645 -282.72105 80.39727 108.32848 -113.30119 830.97569 -23.32874 -308.97817 -316.21904 0
439.87696 -14.92744 -69.57065 447.31101 555.18364 -328.68046 -758.52565 205.60959 153.19861 451.71090 158.58317 134.07196 -202.06743 284.16965 282.14848 368.22884 -273.38552 2.23903 360.91736 0
294.27855 -111.87326 174.32402 354.42312 393.88737 -150.24978 -573.00058 264.33979 475.46183 463.67731 408.31936 185.66587 -485.84463 278.81183 220.45403 424.85848 -668.20997 -67.05981 242.01301 0
-86.72197 -167.64051 -380.02040 220.71272 105.89897 -88.47545 171.38923 332.90910 -342.68731 -467.18483 421.84534 -387.23701 399.18771 475.81852 337.63393 -168.37180 226.24974 232.04713 -50.87980 0
502.82576 341.78747 -201.14187 -51.77673 177.34762 -342.79801 -269.65772 397.33159 79.25146 245.29464 -59.24279 -67.78208 277.93487 366.80232 258.63660 422.96704 515.69675 -325.53664 74.07375 0
354.63049 -13.91123 -363.19319 364.82638 -84.83374 -136.93188 233.91535 348.48520 -44.21866 -553.86686 376.81503 -151.27231 423.30211 481.93894 390.74899 -91.95383 210.05928 290.26046 527.68230 0
-138.66591 402.91809 124.89889 -368.39797 -213.10827 -180.49359 -320.08781 669.41480 307.41925 279.52081 389.76916 74.27059 264.25694 140.04768 553.38186 86.75107 303.60811 138.21924 -157.53638 0
453.28849 499.36911 -194.33043 365.89158 106.49288 -268.80441 -210.55151 598.07715 315.09120 633.02733 -26.08689 -56.47594 653.60824 358.99917 198.65349 330.80828 476.94684 213.15911 165.00673 0
59.51976 -105.08290 -283.40749 -531.34681 472.93865 180.54445 -250.11377 -176.84088 416.27997 -191.23400 -336.15593 136.77874 -346.12335 -61.31423 -671.50436 -562.81359 274.02216 -289.51892 -467.83855 0
175.83956 110.02735 -857.42321 349.79174 -522.67678 440.38456 77.80504 3.63885 -456.95310 -95.59901 783.87985 -194.57939 -248.62132 -431.84010 -392.31527 517.19531 -159.38837 -226.92780 172.23852 0
70.93771 442.95311 -438.92806 241.57889 321.04822 -694.81141 -193.24173 402.61787 -436.08250 57.80246 -344.22178 397.00108 129.04888 539.55756 76.02214 -48.76792 270.78514 61.02532 196.48592 0
-547.05692 572.55931 297.22461 742.75940 378.73660 182.31573 -384.93435 -663.02646 607.43308 -731.78489 611.86909 429.50078 638.65797 -209.84445 351.92295 -526.44131 258.35725 3.26147 -221.50364 1
476.81751 401.80555 -467.83620 234.44461 103.27121 -428.20292 -254.60164 558.76977 91.62086 313.37254 -25.80345 -56.84198 614.80297 185.08310 178.73442 475.79495 366.72082 -284.48419 54.22355 0
245.08338 -207.86414 749.79567 -192.76044 -4.78451 -137.57221 305.11631 101.31725 277.39085 97.14546 538.28707 -273.59007 135.25791 33.05164 -563.39379 119.12778 537.07289 -214.75991 69.71059 0
84.41842 265.23279 -165.38193 96.94445 288.85960 -434.51762 -416.60137 507.16380 -425.05300 307.61004 -111.57820 668.58265 116.08803 300.08939 -541.52197 -92.18317 578.86569 192.37492 -84.53488 0
-293.27674 -19.47521 244.22702 -772.78098 -0.03320 254.90292 -446.88463 -216.80477 64.19793 -125.55993 -527.64049 340.44697 76.45127 430.87444 336.09894 -179.52039 340.26918 350.74745 -7.47585 0
-554.82187 74.38317 -17.34123 -432.08996 -490.14438 451.49436 787.63442 -129.27575 761.20675 -45.42815 -60.95800 -548.22639 -51.42104 106.09049 94.68954 425.38068 44.08147 -143.17719 -470.19703 0
208.81975 218.22965 -178.85772 -118.47852 22.51015 878.22063 422.97517 -204.52523 434.35261 146.38728 -141.60624 330.16518 237.48941 324.05506 -285.55584 380.34088 -404.36856 -436.48452 -451.39840 0
199.13230 325.06564 -57.56044 -43.65767 47.37581 174.00972 355.28021 -191.71017 291.49987 -59.71876 86.55737 478.79643 74.37153 334.80547 -115.94356 118.85523 -406.68341 -237.32238 -279.89854 0
152.81504 156.12039 -150.93037 -710.66022 -109.86902 157.55855 430.87956 206.77530 -356.36464 448.00661 513.50821 426.43541 -96.82649 -89.16622 353.24387 -449.86615 328.18475 150.33517 140.12682 0
472.84708 412.49732 -137.40797 -463.95952 94.12148 -133.24600 -234.41166 539.49805 209.42752 323.48390 -43.81588 -94.31611 135.02791 680.95545 183.34030 259.73576 788.45697 -382.87302 80.37734 0
-499.59812 334.07641 -208.99408 -397.05300 -562.87888 253.76805 485.95708 -103.65725 615.96944 45.17943 34.54580 -62.20810 358.56788 109.71078 -25.48758 549.03560 -131.33694 -65.46275 -426.82948 0
189.69375 19.36834 -182.03487 245.36845 -32.60751 -129.53103 -278.61952 77.24665 22.36016 406.86007 141.51448 146.13828 -483.92060 719.96593 46.35597 293.62786 -402.43479 26.36476 350.53642 0
-366.67162 438.65402 -23.21366 -320.06532 -114.16956 -152.90240 -371.93816 162.56119 165.59789 196.82003 252.27263 -171.64237 394.51978 105.94549 294.03975 -44.46204 693.85836 -70.49029 -230.81871 0
505.80571 567.14417 -142.72776 139.50761 171.13223 -224.10911 -248.67181 688.54810 129.70667 273.39372 -45.88007 -75.02828 839.78889 424.29482 237.55136 -84.16307 115.29329 -433.63211 122.36579 0
93.43409 318.61718 -182.21184 -83.48386 8.77736 604.64661 535.47988 -267.10816 379.97186 3.21328 66.86295 116.09223 211.04051 373.73697 112.13167 114.31234 -446.00849 -634.58227 -372.64339 0
300.94891 -85.87016 -606.63836 -459.36762 407.18040 367.39233 -254.46744 -237.01303 494.47752 -190.41912 -439.13635 147.25972 -305.26109 342.23911 -881.36781 -483.60954 229.92004 -441.92687 -497.22935 0
198.66517 206.36297 -205.21916 -284.74646 -293.49371 637.52291 126.52003 149.86397 16.37054 524.05845 309.67866 410.73450 -26.54614 -125.92291 361.44063 -338.14391 90.68291 218.37227 111.17140 0
95.53133 -703.07077 173.76955 111.00180 9.16394 -260.21830 -136.55477 139.37243 -136.27472 92.61685 231.15230 -366.88835 90.10931 100.32042 -509.38680 133.88339 254.81922 -264.37671 136.79211 0
-583.17405 505.47025 -96.44214 -228.60803 -449.43860 -13.54661 257.78581 -161.44881 201.13202 -158.23090 25.02269 -290.40201 476.51708 107.76230 -149.79535 661.22754 165.49506 -124.74364 -268.44693 0
314.76453 -191.80034 -135.07174 -449.67337 422.16110 203.07668 -224.29431 -216.01527 458.95795 -190.44716 -335.94483 135.48165 -397.62682 -231.79685 -752.95588 -446.11691 609.74459 -317.23950 -399.39263 0
160.35779 155.51401 -380.30876 -688.08158 -220.15947 360.29272 375.46972 175.69104 -72.73251 367.91571 501.68201 419.98993 680.92424 -115.88702 384.51943 -430.05556 337.30488 387.87835 -32.40863 0
-30.78491 -179.61882 -278.44038 -504.87245 472.76053 307.69652 -256.33743 -189.97433 363.32065 -190.65511 -154.87160 141.19127 -389.86661 -223.98034 -543.83694 -432.33606 -455.25434 -358.29645 -610.32565 0
553.67907 284.28216 466.98097 212.41379 -342.43046 429.67132 447.46311 -384.74397 -181.18672 -283.74819 327.99005 485.87969 244.78254 -222.37031 151.11720 -418.08541 100.73725 -553.46958 350.20276 0
487.01348 538.23532 -336.15751 406.52632 97.56994 -330.16563 -272.46941 355.15624 219.91354 613.81434 -40.70566 -57.82968 420.11305 641.09990 222.96040 267.16646 666.02550 -342.93557 134.66932 0
181.03284 243.08382 -151.04276 -656.91954 -3.85165 16.07910 458.89280 188.37475 -58.13026 369.97916 439.84059 411.88608 223.17532 89.77899 338.87848 -432.49731 259.70168 654.30353 43.89295 0
-13.55425 -184.08647 -515.96539 -536.63304 525.58131 162.93675 -278.69116 -78.78526 480.36390 -189.72811 -267.48645 143.04421 -392.36116 -262.65783 -731.02502 -430.03433 731.14742 -339.62395 -605.74864 0
-19.72390 -72.87188 37.78889 -853.78213 -668.55905 -121.87032 -91.13351 -118.09172 -360.33757 14.71661 -259.32309 15.91433 242.45630 569.67690 -386.90063 542.02402 29.27852 -322.68372 -275.95997 0
-36.86787 58.96648 -30.63141 -643.08349 -632.82750 -311.14560 4.35332 -25.56407 135.00380 62.45458 -176.27784 315.74499 250.32999 455.86786 -375.16610 510.14204 26.81068 -403.05039 69.36288 0
553.14578 471.50647 -297.25105 -212.76837 171.02960 -868.85282 -254.85242 289.99205 175.91899 224.25189 -30.61838 -82.51711 418.02065 461.72044 191.47542 219.66652 666.99932 -179.63169 95.06577 0
68.01614 365.24818 -433.78573 -125.05100 307.53404 -629.58482 -377.40908 392.92218 -300.75258 367.89764 304.20743 575.24180 121.89812 179.04495 -300.30624 -566.06634 752.79411 -140.88784 -607.39279 0
-541.73006 97.84087 -150.98750 -488.28938 48.45612 579.06744 -307.97786 -483.08378 32.91840 -429.63182 61.53402 116.31005 487.29440 402.06542 373.53459 -218.20488 -81.81244 334.46892 1.01580 0
-390.24357 319.84024 -193.69842 -285.65564 -478.86240 172.30469 -113.96006 -160.84610 671.13367 -93.49430 177.27580 -894.63933 -9.17195 105.01074 34.13016 422.34311 -11.93854 -402.05387 -22.26484 0
232.83504 92.44661 -329.82469 413.22478 -185.71195 447.33242 243.24089 -202.96703 -407.74666 -103.30764 493.05392 -282.94786 -167.04028 -705.33348 -595.03506 446.88692 -156.51950 -201.27753 302.53491 0
469.29420 -269.33984 -198.24448 595.45289 -463.94535 699.62493 235.69591 -570.55280 -94.26529 133.83556 72.46699 290.74349 416.24159 -638.99374 415.74651 -17.22013 -432.91405 577.34822 395.24375 1
-328.79216 326.16828 125.08227 -279.58717 -198.41306 -131.84828 -635.30248 191.53916 143.32195 172.17465 81.86989 313.76605 185.40366 29.95640 513.77435 192.98691 811.27087 -50.41663 -135.49575 0
417.65425 109.01363 -510.74473 521.29008 -79.14553 440.62750 463.19674 -30.02064 -382.25044 -63.17308 409.31734 -256.66130 -57.90885 -272.51031 -256.35293 512.98308 -176.59990 -189.93865 102.31553 0
-279.42835 521.75273 -55.72604 -322.18233 -44.05193 -178.66356 -362.52248 627.63222 108.67729 307.52192 117.44833 -127.19679 319.20523 49.10483 587.48073 229.07632 481.72669 -25.48876 -128.91061 0
15.80900 -194.63414 91.20659 -675.60832 -462.90149 -434.05068 34.11785 -30.78467 118.11182 95.45437 -254.42456 132.50006 233.96236 773.97870 -366.97285 506.92951 49.19163 -130.00198 4.28589 0
348.79330 98.21981 -422.45671 457.26786 -183.97751 447.77795 176.07453 -242.89793 -388.03163 -147.02533 363.93685 -250.12023 -25.55813 -719.29982 -506.04053 508.76297 -131.59412 -229.33310 263.79260 0
-385.89460 409.75275 95.58878 -434.71707 -218.80361 -245.04201 -498.29474 462.75852 -123.35570 308.57788 -0.88538 -489.12138 342.06587 139.12161 575.78127 180.34197 619.03293 -70.80494 -138.80165 0
45.26576 -91.89853 -343.44999 418.62838 -109.58417 -195.30373 139.96213 351.85893 90.22414 -487.67307 459.40436 -289.38629 404.52144 474.65737 160.51680 -247.81996 341.60431 411.16166 322.18058 0
109.14784 -651.23643 273.43312 -510.43508 12.44963 -358.81156 -102.25114 325.87906 -62.65662 385.85933 324.14820 -338.33365 101.32055 -84.00011 -588.21398 212.19467 315.52947 -233.29075 106.93325 0
759.01449 -513.40534 -31.08728 -128.17355 55.04637 -319.72990 328.75522 244.34774 70.75283 411.62705 489.09281 -312.77021 -42.57518 165.90173 -251.28949 75.96104 451.86985 -239.16410 352.63271 0
-396.34059 158.87312 74.65422 -204.56341 -507.62706 -114.68583 413.46984 -212.12086 546.07583 8.93874 46.09005 -124.88639 308.54137 109.23355 -473.49257 314.58841 69.91563 -470.55771 -383.83038 0
-305.96633 99.76508 -252.88327 -648.16968 45.33343 -86.02439 -338.73146 -92.37754 13.61773 -307.23516 15.74084 180.02495 462.03335 348.30831 339.22376 -50.68496 -90.24049 441.72409 -127.53861 0
59.12814 -116.22425 439.85462 425.25478 -327.63928 431.20415 122.45391 -364.81888 -366.37620 -302.93632 331.68515 209.49548 531.30297 -321.35658 186.42358 -304.92831 139.93952 63.47518 428.28882 0
105.71596 333.18520 -139.44423 -121.98763 82.24184 97.69093 748.62937 -191.03630 370.70892 55.57582 -357.44784 166.20659 86.92668 660.52631 -238.70177 -388.53157 -441.03916 -105.45587 -448.87836 0
-587.63756 493.02887 147.05692 -368.15164 -416.39048 205.56016 538.72670 127.23415 536.50002 -420.23625 -138.28395 -153.58252 249.55653 106.96284 -153.19279 492.51735 88.43625 -134.32245 -128.69271 0
128.97440 -160.85362 -73.48998 -394.86260 530.82791 214.01621 -268.15491 -54.57575 481.15915 -193.69596 -230.22426 146.69163 -329.29748 14.84202 -28.39729 -536.98040 397.32070 -307.57807 -550.03015 0
-614.01606 170.79462 41.11914 -408.83701 -559.76517 626.89885 5.94304 -141.38428 361.57951 -124.26536 528.71895 -432.83329 237.64533 109.64396 -286.52797 455.59036 -69.31517 -260.04102 -635.16195 0
268.73688 -148.81178 -331.52225 -584.55310 513.89597 224.76196 -272.39668 -310.82546 413.12362 -190.32386 -282.83580 141.90444 -315.54994 147.10500 -659.02877 -621.09964 796.01663 -343.35251 -507.69052 0
91.00428 -489.55898 502.81442 274.10805 -451.56419 428.53507 109.75848 -417.76337 -136.77750 -229.94978 326.97621 329.39844 255.01387 -226.15902 188.65865 -304.92571 91.33322 -325.91484 391.07643 0
205.68858 270.05032 -81.97831 -140.85276 -9.19959 634.53636 705.83412 -163.29802 571.94107 -58.57170 33.58593 272.20363 444.26660 278.28282 -384.63072 -35.74950 -453.21153 -137.36603 -362.51941 0
429.50707 88.86711 -307.32238 305.35472 284.77966 439.96800 555.23490 -291.80636 -278.27079 -171.37217 -189.63444 -273.82219 22.83198 -668.32962 -376.62350 460.14102 -189.43509 -244.68130 19.76871 0
-439.36984 498.53623 165.27054 -144.14988 -207.32150 -157.91160 -518.58204 670.24706 368.50454 356.04274 344.36027 313.77274 256.92790 389.37167 650.43659 183.48241 637.15831 -113.22434 -283.06278 0
215.68088 235.25596 -198.19703 -143.36567 41.68894 593.21026 143.85430 -185.13664 371.32567 -63.70041 -323.53326 41.55697 197.46577 350.92358 -357.33786 3.79583 -418.05721 -271.34356 -109.10751 0
297.09872 131.50687 -21.78943 -54.62912 28.01679 460.70024 512.04043 -163.45539 115.98278 75.02411 166.52076 51.27277 212.60289 389.79458 -405.79456 190.05148 -460.14889 -440.75240 -305.28213 0
119.02443 303.44634 -88.45392 -114.08095 -4.32532 345.59658 759.80208 -163.71743 286.74050 -86.68848 222.25215 411.60741 151.73570 509.04473 -334.81689 -223.74200 -469.28714 -503.60255 -82.01463 0
89.88558 727.65214 -287.05735 261.99470 326.53010 -356.19047 -147.75192 786.92082 -425.42880 -74.63237 96.35664 450.44483 120.19709 223.78948 -23.67325 -217.90130 824.36957 -131.40406 -178.44576 0
161.94428 247.22346 -206.95265 -96.78585 9.31519 205.96506 427.05160 -199.46169 319.40795 258.10104 -74.01492 380.68315 152.07143 35.53541 -141.54319 -349.67687 -474.66640 -566.46185 -389.94079 0
456.81478 -326.85101 330.79474 -301.48762 94.31451 -356.45064 463.96007 291.15297 26.69307 636.74979 475.77193 -285.29107 156.51630 -402.48805 -477.10783 216.71203 421.03751 -196.46995 55.52539 0
-94.42893 305.52391 -3.63355 -280.96331 -311.41048 -536.96302 83.50519 -244.96146 -70.44229 10.89369 -329.69280 115.48575 252.38088 230.44201 -382.78971 635.86401 33.49169 -576.42686 -82.61759 0
470.12381 110.36260 -106.33707 357.67796 223.51429 445.20463 437.30407 -46.27518 -291.37404 -226.20552 288.56684 -269.63438 -174.69522 51.82898 -460.44051 513.42917 -135.48654 -246.49833 370.12080 0
382.57991 85.97883 -179.17314 494.29647 -74.50421 436.92726 247.13684 -279.94242 -247.37003 -188.11828 747.92913 -132.70191 -191.97190 -571.77842 -459.53689 499.20737 -151.22373 -223.71850 175.05903 0
143.93061 332.66401 -349.99609 -284.10521 -388.36920 204.83564 805.32069 63.87012 61.86358 142.03053 423.57313 404.59553 104.55649 -180.24027 369.70543 -434.57708 252.68552 164.14818 122.37252 0
211.46680 188.88818 120.38999 217.30826 47.15556 -226.43688 -270.42768 135.10946 -5.61347 426.99880 449.84375 100.32537 -472.04819 -115.99726 591.02396 654.50158 -425.46448 -114.43379 202.19625 0
481.84570 438.14926 -572.09782 -197.69893 131.78085 -369.17046 -256.46896 545.35004 135.49442 419.84081 -58.37291 -64.86782 547.27574 368.82594 172.03937 153.26585 334.86195 -137.29503 55.34474 0
57.00805 169.94179 -295.64451 198.64486 265.30472 -531.27594 -80.03190 616.84008 -494.17049 107.94491 -133.55578 242.33140 121.94284 244.03501 -419.08643 384.23803 839.66025 -113.40668 -171.33120 0
-523.15458 532.02837 -428.59567 21.01172 16.61089 627.40360 -85.38492 -247.69305 137.41289 -270.25508 -685.20024 523.12249 475.83378 -423.13237 613.83281 205.93085 132.14818 -589.52836 487.79136 1
705.75522 164.66647 -93.24834 290.77596 -700.55353 703.83797 484.86076 736.06024 495.51501 83.36265 197.48496 561.26296 -743.67796 -301.13516 -450.06970 329.65334 233.65363 174.01683 -277.47280 1
172.15062 400.03451 -237.57293 -340.04438 -22.22187 342.80319 481.78264 315.92228 -428.58502 277.05502 584.37138 407.56787 -164.28939 -254.81046 289.92665 -369.16140 93.67559 435.05580 44.76888 0
-281.01505 66.00995 -68.69320 352.74161 -248.85330 -271.58018 -505.43822 246.76524 323.71375 413.79984 321.46979 195.19837 -567.24401 290.00796 71.77617 331.11098 -228.14676 -36.36072 231.98546 0
42.26054 169.08973 -492.84717 266.19304 47.11647 -148.28089 131.48953 388.09349 -313.34248 -473.68076 412.47955 -622.53837 482.01160 492.61840 330.40648 -49.35269 347.80220 83.82908 -164.28592 0
75.37890 268.49970 -356.58975 242.10487 281.22855 -444.89401 -404.82751 573.87154 -262.57066 68.21080 149.58712 391.48087 125.10809 585.62876 -412.74688 -154.21856 405.47390 -226.48686 -378.72841 0
-594.96945 321.62009 155.06340 -322.76586 -207.89008 -173.50366 -531.73062 495.40581 147.86749 256.27284 -67.57852 34.11630 296.01944 -219.73973 568.95583 247.50378 387.55329 94.25750 -64.55813 0
175.62708 134.45052 -410.46783 154.20222 98.41643 -42.31037 167.25340 366.91054 -627.96915 -541.92664 443.24065 -0.84366 437.73588 476.73398 345.45274 -267.77072 239.15397 325.56012 37.05038 0
-402.02306 8.54779 246.54270 -627.45324 25.48445 264.96348 -400.66644 -347.23678 25.21519 -263.30256 -165.39253 371.22240 314.37448 96.51370 333.81812 -151.55935 220.16730 165.56249 35.04827 0
-214.57531 -280.34452 -61.41509 -574.99016 -574.06110 -450.21470 43.19481 144.50014 -46.42911 88.58063 -329.45927 -49.60327 251.45254 115.62419 -353.61441 444.86756 52.81800 -170.75338 -10.26668 0
43.08610 385.47074 424.93660 510.93037 -294.09157 427.19887 445.04831 -271.79408 -125.40522 -253.83987 328.73934 143.09836 322.86351 -377.13860 170.25546 -397.08952 119.35027 -174.67706 297.96804 0
-529.80569 126.74061 -340.16907 -597.47458 -447.32448 20.19398 -101.55091 66.28195 620.67867 -415.09790 215.57518 -342.65491 118.16578 110.62570 -365.91776 614.08631 182.09285 -498.59553 -417.10431 0
100.27569 142.36727 -411.09314 575.58488 272.96359 -396.99482 120.07961 341.20582 -427.56148 403.96950 96.09617 529.39827 125.07935 91.99192 -152.88512 148.21004 650.63751 -165.38260 -435.18898 0
902.08717 -291.48690 8.79652 -188.84711 11.11731 -174.24756 507.63146 319.30714 -57.57412 206.74783 361.41626 -251.74143 262.92113 -186.85081 -434.44302 73.23706 386.00230 -239.99780 -153.72546 0
-380.61891 314.92250 -299.11330 -346.20104 -507.73574 159.42209 -20.55979 118.00773 30.31678 -411.71835 -515.60142 -523.51323 158.05499 110.68351 -78.79298 321.98855 108.49947 -289.68981 -368.35066 0
698.38903 -283.52065 339.83899 -5.23978 -389.34769 283.83271 279.59785 -211.27642 -254.97574 310.64539 -703.59801 459.00481 -284.63858 -368.93490 -108.05646 584.38590 -723.18575 -36.85008 -589.41309 1
33.27905 2.12394 418.16073 289.61735 -315.47481 428.15457 87.02319 -293.22449 -87.78299 -205.78197 331.10916 625.50884 509.32601 -544.57323 190.38645 -394.51397 101.92973 -37.71875 314.15342 0
-470.24218 358.12845 -223.15112 -415.56496 -504.93005 264.94622 69.02259 -208.51080 799.93641 -21.04209 -135.23146 -588.67242 134.63043 112.25696 -354.57092 391.46707 -114.14674 -285.57997 -287.42336 0
71.36222 -591.45871 -26.17778 -626.57532 -404.51956 -382.89288 149.33516 -123.61283 308.34787 -4.17838 -321.51316 239.42862 241.44806 546.58683 -387.13790 376.82432 41.22937 -967.51780 -0.22927 0
43.04595 63.99477 -377.43666 498.34726 153.23377 -50.14956 213.60291 360.50263 -623.21546 -524.95302 344.35479 -623.38964 465.42781 471.32708 477.15972 -262.09642 331.72092 369.51932 -140.68550 0
192.48700 -166.11502 -219.52326 -508.55104 586.51694 281.90763 -259.65167 -193.27414 413.48701 -191.30514 -297.66563 142.46051 -258.62427 -249.96088 -560.92100 -765.83508 469.56539 -314.72613 -478.42832 0
123.95043 -33.11152 450.76006 468.18852 -246.73603 428.99344 29.11693 -579.52739 -418.92609 -322.38791 330.37291 536.71234 599.21257 -470.49308 192.44607 -278.76046 124.66764 30.39691 469.16265 0
395.94946 -158.52801 -513.53145 -348.00135 502.05303 102.38031 -266.88296 -258.05281 472.74664 -190.47872 -94.60347 144.18172 -232.73112 -278.65334 -446.76818 -542.64989 518.06980 -352.48125 -486.45549 0
-542.00633 -409.85732 557.46009 477.86423 362.08869 324.08248 632.75382 223.25773 719.67317 460.61053 139.18632 -684.78277 -131.36304 -223.30391 -289.79186 563.16615 301.49548 -113.58750 44.63211 1
-424.65078 509.74637 13.53430 -471.37700 -403.65412 470.00999 559.98996 -308.74007 849.83436 -66.21454 110.98235 -149.59887 111.69236 103.99754 -75.67521 630.50700 -101.95687 -224.96581 -351.71899 0
171.08840 254.91027 -82.40083 -82.84143 -70.93225 674.13327 511.00304 -230.27088 412.80696 400.47290 -68.96904 536.90736 95.87838 136.42675 -105.66359 191.59657 -432.29283 -272.84384 -176.43943 0
29.33701 197.28984 -76.84663 -138.25643 16.75448 367.56280 608.43539 -188.58044 402.60008 293.04554 313.76842 200.64809 18.83635 288.31440 -445.29708 102.44299 -418.10418 -117.95728 -480.70646 0
110.81610 177.21133 -399.73148 529.66747 -43.49591 -222.54958 279.01208 390.49872 -123.85893 -456.03008 409.44177 -531.13578 442.78314 465.42660 254.73240 -287.63786 338.04774 -153.61699 -209.53381 0
356.46921 70.97342 -878.09657 384.17647 -33.99598 437.05354 450.88058 40.22412 -320.54297 -145.90659 64.72323 -127.67131 -179.18638 -707.65108 -368.55047 486.51030 -148.57752 -226.26005 201.59121 0
-278.27801 108.20686 -72.19222 -757.91141 19.99948 224.29803 -393.14997 -317.54628 35.62395 -299.04910 -475.78029 401.92561 271.74532 -17.92869 296.46365 -135.73856 174.29953 437.54069 -132.98132 0
307.44935 -330.74232 199.08720 -330.41970 42.97080 -574.92839 941.19346 365.11367 -13.23060 23.86906 461.92254 -403.66027 58.76856 -474.33453 -482.60593 141.48941 316.82308 -243.63714 -2.38783 0
553.07294 352.43534 -401.60755 589.32066 141.57870 -393.03071 -225.46736 600.88990 254.16462 -221.21427 -35.15436 -85.02790 365.74864 465.86941 175.51491 338.32734 625.70941 -196.05783 196.74670 0
175.83017 756.20647 -43.92465 -277.72275 -168.08743 -15.66798 341.12750 170.56728 -259.51856 294.10669 560.67124 413.04762 -344.62813 -139.00099 304.47896 -474.94410 119.29818 20.64220 -90.11662 0
112.46591 3.72601 -291.60858 148.57607 253.11489 -289.94121 -73.62601 209.23033 -337.67945 140.20884 -77.28855 818.17123 124.49440 226.13174 -81.12775 -147.21248 182.27022 -66.37355 -401.02307 0
205.15522 321.77966 420.35136 600.70204 -306.60268 427.36396 405.09629 -138.63939 -114.24713 -236.71493 327.66739 354.39397 241.78889 -447.07477 179.05159 -349.40746 134.27575 -258.51455 353.12170 0
225.73654 -55.52773 -267.36537 -362.36386 321.27120 104.15128 -274.33271 -249.27750 431.37241 -191.15099 -430.33393 146.69840 -249.67474 138.67552 -654.71159 -462.31601 254.42841 -400.26622 -418.58383 0
127.40990 -119.68960 381.41036 35.45586 -333.09703 424.87622 174.40693 -204.68991 -54.43161 -147.34249 327.46712 82.90625 277.61707 -404.79718 174.28474 -350.50984 91.22460 -659.39321 490.31567 0
429.70695 -687.13368 245.95322 -28.60167 50.70273 -289.39467 659.73872 448.16140 224.53315 174.61908 516.43094 -520.26092 135.40285 -721.07450 -612.97422 251.91588 545.81061 -239.23530 78.21878 0
321.47540 -149.21327 -332.27741 -428.09513 576.48374 183.75285 -259.15740 -136.42741 424.08949 -191.92223 -265.96546 141.50209 -322.34475 161.89015 -271.67192 -404.45606 554.58967 -286.96578 -642.47656 0
-79.16698 -120.97369 -572.04869 -414.78163 272.36657 85.30247 -270.56261 -171.87887 502.97697 -191.08600 -457.25332 138.49003 -408.10598 -442.79738 -801.93536 -457.49259 324.49200 -303.93573 -371.63760 0
322.60291 -179.88527 489.26488 -193.97769 89.70969 -381.59510 1003.64565 165.60766 172.02607 526.12489 387.42466 -330.73034 222.17035 236.56367 -491.56444 -38.96765 500.87928 -220.69256 -177.61431 0
-418.17917 414.65436 -97.10174 -410.77186 -483.32041 127.27521 152.39812 26.39328 283.82555 -239.64723 214.61839 -668.63904 180.26106 114.29143 -95.92519 534.37544 196.01698 -335.72096 -306.20204 0
96.13495 336.66340 -119.65167 -77.82707 -45.65384 379.29458 66.75524 -146.96696 343.19727 3.77116 162.38679 134.12784 311.91470 94.83481 -200.69560 -183.94555 -416.39744 -348.52508 -442.26121 0
-171.98662 88.43324 -32.12092 -499.65786 -265.06107 -497.88888 17.64623 -54.15196 -294.28058 -76.05076 -166.15871 251.75053 249.70167 579.12570 -364.54179 511.27301 18.83412 -377.25558 189.03449 0
356.89997 -182.24111 -339.17894 356.74749 29.96680 -75.41009 260.03853 323.91011 -370.70751 -397.89019 370.25311 -259.64581 496.67046 458.16790 530.98458 -236.20377 325.75661 340.86200 198.96104 0
743.84143 -611.83155 171.31635 -626.35753 22.45206 -351.55845 280.28770 241.12984 -169.97512 264.91217 227.81154 -344.08981 271.66540 -252.00508 -286.27933 93.79350 520.58534 -218.33904 -6.24444 0
259.01637 22.19932 -64.95466 377.63715 237.86713 -213.20416 -421.98826 64.36642 176.97326 489.16525 393.24029 80.69239 -540.01427 425.01966 227.49472 487.63261 -672.70676 100.49328 251.41096 0
-501.56380 487.39450 -32.25748 -422.48110 -430.31930 -46.95369 191.22298 -76.02517 535.86418 -206.01311 239.73832 -184.35048 23.48738 109.82414 -189.06418 215.06054 -305.75415 -280.31823 -402.09398 0
-523.13583 633.21755 -97.76202 -438.79778 -437.71536 -107.91927 531.07310 75.17706 881.70697 -207.83873 99.41853 -339.94158 -51.42233 105.41509 -155.09464 411.68447 -139.43123 -159.30584 -213.15003 0
270.22850 274.99633 -118.48161 -77.07519 -34.11594 125.14650 311.96359 -197.37050 237.62021 72.56882 -11.97597 228.65472 112.38460 266.47628 -86.81539 153.90525 -461.62632 -281.39510 -260.49741 0
41.96874 -413.82822 -26.86850 -465.57243 -350.50277 -541.62573 8.09870 -66.84233 -202.80808 174.06741 -443.23328 71.86203 244.12651 836.67700 -359.77693 510.93015 75.91925 -505.63948 145.13492 0
-817.72418 131.40922 2.84816 -325.44880 -500.01780 515.82937 78.50518 -63.61959 -6.40997 -378.09558 -47.13829 -775.62125 421.97233 107.17184 -99.81455 417.48795 -69.53566 -394.05971 -298.17641 0
452.08309 88.73633 -393.97362 267.81057 -46.84018 440.05036 568.10779 -2.56008 -297.63949 -178.66194 442.86455 -143.58995 -59.61534 -517.96682 -519.34917 427.81547 -167.04688 -196.24345 154.40728 0
50.57586 14.08790 410.61094 469.79017 -366.96015 427.94212 266.04392 -528.52325 -171.39029 -406.96922 326.16370 353.41358 284.12833 -410.60912 180.79638 -359.53253 115.11540 -424.64875 358.39315 0
-400.81309 194.61569 -157.17266 -287.33781 -512.45929 -84.59887 55.33639 -116.26530 673.04594 -460.67881 49.47190 111.90605 314.89564 111.55968 -209.65042 626.17944 211.43420 -109.96844 -368.84056 0
175.86702 278.19037 5.31629 -570.62463 -142.98329 455.22904 382.40287 298.90910 382.87014 508.35261 102.17011 427.87019 -66.78019 -62.77135 352.49252 -336.55865 330.71367 -115.35111 103.76127 0
232.99364 -535.09486 -547.98796 569.16653 -222.31963 412.78286 -57.20042 199.39921 517.15564 -471.69405 197.85798 431.86509 646.49439 -552.25826 -270.55778 521.74475 494.88831 172.19540 241.63176 1
-41.44401 435.80516 250.05453 -419.46674 -192.80406 -163.79044 -318.31431 377.12189 257.22362 279.26770 104.66245 245.04153 448.09658 64.82806 391.68830 125.76337 577.65324 -94.39186 -166.22581 0
453.30636 105.41283 -575.42727 491.27053 -256.06003 445.37985 -41.26323 -40.77663 -269.44851 -168.29978 655.07793 -297.72452 -183.73879 -695.40742 -553.02917 548.72452 -158.37068 -259.01108 210.27589 0
413.56804 -83.79342 394.26870 248.15866 -302.17015 428.26173 -5.82282 -262.32475 -232.71313 -325.72764 330.85050 452.38096 209.91249 -123.97463 168.47227 -300.95867 124.93188 -52.87863 523.79537 0
-409.58388 505.52776 105.47234 -373.83896 -146.21897 -179.32854 -658.68525 151.51428 292.95005 360.70577 122.28116 -35.49036 328.68842 198.62456 94.02523 130.98241 606.55789 -275.20321 -117.50727 0
-185.92539 343.47374 71.83659 -233.41911 -149.94155 -130.56929 -344.21472 450.04083 54.37577 342.35913 206.87432 141.77789 376.21996 12.83808 490.47054 91.11176 961.44775 -52.26998 -230.47796 0
42.09812 149.44957 1.53583 -100.45803 -35.78671 372.57805 306.00969 -190.27206 355.85139 -105.89197 85.55066 209.67063 112.98639 502.89614 -174.15923 -92.95917 -473.83459 -194.91579 -577.76582 0
188.63385 -215.75330 -404.14818 404.57456 268.42299 -75.62792 318.43645 399.20903 -231.51219 -456.82328 323.95144 -602.83861 431.01159 470.51061 539.23725 -195.65450 305.28352 48.72567 -313.78585 0
-307.89432 50.98605 155.05890 -321.25599 58.38267 129.22258 -372.26191 -131.15826 53.26606 -296.60560 -20.99098 207.81637 326.61566 110.82002 355.25559 -165.30486 48.77843 344.40914 -153.78122 0
12.76512 187.96128 -27.40399 -421.17816 -576.99860 -218.43148 7.65593 -47.95505 -81.60404 110.43571 -390.12049 119.91520 252.14694 127.65059 -398.29955 437.79219 30.40426 -615.17883 73.20569 0
10.74128 453.12872 405.64023 583.71131 -226.54460 428.68492 21.65437 -313.96698 -60.15418 -268.21435 329.97348 322.90016 386.78552 -376.33996 176.08841 -495.86025 117.95761 -75.47185 574.12300 0
188.28324 -162.44997 -273.10067 -568.66170 459.21634 65.10512 -243.92493 -42.63969 476.74020 -190.05241 -409.96224 145.44198 -284.15984 131.22159 -570.35118 -519.57299 243.77006 -396.31906 -579.08802 0
195.01922 622.74398 -427.06585 -404.03667 -54.78932 297.24774 659.19446 193.88281 7.90702 419.66478 736.70471 414.27724 56.72744 -236.62769 318.64412 -371.45877 -80.86196 116.91720 168.40746 0
-123.13303 -449.61695 50.46040 -466.88552 -479.97926 -155.20545 -26.37944 -73.66845 -34.00706 212.73942 -480.42541 -19.09330 251.94335 601.52802 -394.89447 484.41706 44.16302 -382.22516 34.65458 0
414.58943 100.88387 -507.22346 330.65943 -347.02825 445.69805 365.83244 -171.18840 -248.00476 -158.08539 736.91781 -245.11435 -138.83985 -472.90422 -324.95975 481.40511 -157.44316 -156.85428 94.94720 0
-7.31691 -185.30211 -48.14569 -576.20072 -342.60813 -400.67888 86.61705 -95.12538 -27.95601 16.13358 -382.14157 -16.74501 235.85789 -53.35529 -402.10317 511.39084 31.82095 -540.84553 -45.90110 0
188.04742 586.89111 -266.71299 -451.95768 -31.51800 280.28632 208.26841 286.85213 -80.39450 473.29337 541.30723 405.83892 188.75354 -268.16971 343.90523 -471.35737 -68.92365 194.95117 121.62507 0
90.51017 406.08854 -535.08748 27.45098 333.32946 -546.40674 -331.84386 925.89068 -425.46018 -63.17668 0.93308 462.35665 122.79834 405.12262 -244.38537 68.54694 719.48159 -52.90832 -400.62192 0
471.20966 279.49798 -347.07565 -235.04798 97.77894 20.78690 -256.88212 347.63193 129.66481 135.65500 -31.58549 -62.87740 399.00545 858.80575 202.84601 219.89836 354.77023 -241.15551 130.77810 0
-31.79043 272.20944 364.73425 398.25549 -162.15604 427.70002 398.91170 -338.96838 -482.08363 -243.15688 329.14672 400.67248 83.49363 -414.90814 170.83849 -276.88173 102.09658 -441.24501 500.71117 0
-166.30535 299.77806 -12.19719 -402.45069 -499.64188 -124.43857 21.86443 148.54924 265.03251 -274.59196 477.30953 -93.50169 433.86065 109.08680 -431.28521 321.76259 164.71530 -350.01287 -417.02522 0
27.59962 -98.53180 439.92587 167.02800 -327.00437 428.06403 306.72880 -228.24081 -415.74366 -328.92416 327.99448 682.56494 685.44211 -59.88504 154.69562 -282.83684 108.50898 -124.15350 449.08718 0
439.47256 370.22673 -354.09589 -135.73602 97.83473 -440.73896 -244.67824 289.09821 156.58165 609.47930 -47.75248 -65.16400 753.64330 504.25614 219.29757 -83.14748 284.00872 -82.66213 174.04330 0
-68.83806 292.37777 54.54917 -738.09105 -420.01506 -218.34252 119.53499 55.21142 42.11675 6.74546 -191.99800 175.69047 255.16421 595.75649 -396.01116 384.43030 26.67177 -397.57699 10.39880 0
152.29654 257.92654 -284.71202 266.71479 236.70880 -287.17541 -287.17061 21.22983 -93.72660 397.84414 200.04096 98.65469 -402.46862 672.27807 456.68058 528.54125 -474.23277 128.89018 261.01069 0
-94.95926 -445.61001 30.03381 -701.92637 5.80708 -151.07623 36.37982 100.03189 96.45800 -84.03780 -188.40920 -41.91888 241.24211 755.04359 -401.86346 431.15917 49.15069 -532.22026 106.96874 0
-424.00542 176.12771 -134.44100 -238.23328 -465.51574 227.40423 278.89861 -285.75631 492.17652 -134.86814 42.25540 -463.23802 139.66991 110.29377 52.43729 759.92973 -49.97025 -322.03471 -361.12689 0
248.96016 179.45720 -150.21065 392.76120 181.55471 186.59540 -680.42919 132.68388 285.89916 309.30047 428.23681 127.03190 -306.07931 986.66786 613.87402 204.11428 -926.20241 73.16463 208.00404 0
307.03860 -131.40327 -212.05703 -492.65154 384.56810 202.19429 -273.43764 -416.47296 488.31302 -188.04565 -78.22101 139.99624 -471.77840 -125.99892 -200.28105 -665.28435 464.54950 -413.22546 -468.24400 0
-335.30645 193.08342 88.83619 -497.99453 50.33850 -371.83865 -398.94868 -97.77470 41.05487 -302.54947 -589.63866 177.57075 346.37246 230.58314 343.54233 95.76147 105.43691 251.92220 -151.56361 0
-458.62062 129.73742 85.57014 -142.27971 19.35590 171.47684 -342.49630 213.06461 0.99437 -248.36309 -396.52516 114.64023 233.37540 89.53667 357.18043 -39.56646 93.92093 261.90322 -116.77301 0
237.19826 -37.74738 416.99326 398.06802 -218.00469 425.94155 156.59974 -373.41482 -389.17365 14.05003 329.60625 318.51218 393.41054 -680.08992 174.07824 -333.15906 103.80964 147.48264 499.86553 0
51.12570 -91.35529 -333.57690 353.01970 106.47909 -142.30113 156.83732 365.60946 -408.39290 -517.54449 439.45243 -212.53337 429.12099 488.62450 463.68077 -192.57465 431.45323 -127.49488 31.07728 0
505.49613 286.59829 -189.89823 334.59570 138.77721 -466.58496 -243.64607 688.43878 278.52411 355.12773 -30.16318 -68.29242 674.77028 271.51125 225.56465 147.44954 771.41555 -436.61366 35.87060 0
-149.23634 332.98549 -63.27685 -444.18745 -327.21310 -177.76984 42.30416 21.10782 32.47200 103.87467 -383.51250 23.05086 247.36400 -46.50505 -394.76249 423.50203 17.50738 -632.49864 103.77629 0
372.32636 -39.04886 -230.05467 248.35842 39.05129 -64.24113 152.89850 356.48307 -131.90291 -521.87161 462.72801 -435.35367 464.49550 457.96002 415.71486 -83.02965 219.90459 -236.07285 106.74614 0
46.43659 294.11402 -248.31627 -89.88822 332.48208 -351.60393 -196.41299 597.85441 -383.44252 358.51764 -365.16972 884.37497 129.02762 -220.64066 -345.64927 -97.73929 571.89721 -86.46924 -604.09832 0
53.33497 138.66975 -471.79430 523.31386 151.43588 -38.11932 118.22980 341.12259 -252.80120 -411.63692 407.20403 -486.88880 411.75983 480.76211 215.38538 -258.22344 142.16016 547.08438 149.66080 0
-227.63751 -276.99688 -355.02688 279.35538 279.30952 -167.17644 -672.23750 252.92393 187.67340 424.62749 147.19737 78.90545 -565.15471 3.80278 538.49542 596.48738 -548.85442 -0.81181 223.99233 0
387.71448 -308.04817 577.19617 -422.60518 76.50654 -488.38910 508.11095 -63.29932 157.48428 476.55524 360.81240 -351.39862 219.17445 -54.77751 -406.41915 81.14239 344.30730 -206.26910 88.73952 0
-332.05810 -28.45215 -163.08018 -190.98977 -448.89216 -94.64097 673.09787 -34.96173 857.81714 -21.24999 448.09731 -368.39408 0.47412 109.93961 -25.66975 578.14119 128.55295 -46.13413 -77.82584 0
547.71091 391.46758 -370.03582 -13.20478 63.50342 33.29353 -262.89379 493.68636 155.01256 105.17005 -31.41219 -59.16921 486.59049 235.05342 243.06269 415.39372 462.87134 -429.51739 150.67990 0
103.45887 195.81646 -61.65487 -61.00402 14.46758 638.90366 517.51845 -180.60107 275.06131 -45.57322 -288.26917 231.80222 201.45031 873.09948 -285.71221 7.28592 -449.74900 -139.13244 -175.81875 0
152.45649 319.76365 -163.79171 -313.42232 31.01921 223.57656 775.37085 179.22393 554.31463 519.56772 548.35241 416.73868 62.60200 -108.58325 356.69667 -420.37387 89.53023 129.64283 55.30690 0
65.79965 -75.83674 -542.75589 198.73178 324.54712 -587.50220 -60.44033 781.61088 -370.51765 421.67247 300.74235 124.83316 125.68296 242.70240 -183.31943 -209.90187 339.76869 -54.81017 -416.19946 0
77.86776 -777.76834 210.02875 -342.49977 80.23904 -419.78492 379.76564 340.49947 321.98754 794.28163 377.08020 -315.28943 166.64478 -398.01719 -381.93802 370.12378 413.09470 -254.12223 29.38105 0
10.24560 222.62868 423.05180 585.46909 -229.19952 428.64978 484.99111 -414.37398 -151.01826 -240.16491 328.75758 230.48762 445.95817 -231.22213 184.94009 -211.16940 105.19979 -90.58036 418.47430 0
83.23852 332.08438 -418.35446 263.39096 291.15317 -644.84229 -138.67568 244.28234 -452.32667 173.94694 -34.81838 404.25206 121.73109 542.92824 -41.25029 -166.27878 227.43714 -280.32309 -724.28954 0
-615.83900 300.23378 120.55591 -586.79187 -460.10925 251.87934 328.08477 160.04828 376.51464 -55.87948 90.33671 -155.25730 277.42852 109.33152 -397.67265 227.21914 237.88916 -160.25733 95.25074 0
-67.58441 208.51993 152.96426 370.95678 1.57600 -461.29154 -503.70782 203.74964 -106.03299 366.23355 201.42706 116.14772 -359.19255 95.77153 616.24026 290.55081 -617.57411 -242.97390 38.87245 0
531.04648 -148.90792 -414.02702 -450.37783 618.14742 80.67254 -254.12828 -210.16498 433.02692 -191.52503 -294.63637 150.84486 -416.16220 201.17902 -595.99609 -527.08436 59.55102 -412.17414 -718.32443 0
-323.81081 -170.19968 45.26812 -871.94186 -703.89772 -293.02268 44.15315 -199.35554 36.39795 74.03182 -206.81667 128.77972 242.08809 624.14146 -345.90147 437.12908 63.15410 -536.32483 -66.22326 0
228.97691 342.62948 -152.68490 -86.57722 -85.68578 133.98728 550.92690 -231.03521 444.73772 157.57372 136.16170 125.66089 276.27763 528.61584 -386.85201 115.56275 -431.84020 -224.85337 -237.39237 0
101.96369 226.00601 -329.49206 3.26539 320.24801 -678.61361 -34.50160 379.38953 -361.19259 479.96456 -139.21406 345.22806 124.95260 504.58744 -129.47148 481.03480 252.32015 -80.86073 -342.39736 0
-625.39689 -394.88728 -545.08866 -293.02499 429.15355 -685.60530 668.25887 -92.20750 -545.11867 700.51813 -269.45102 -536.42663 66.17877 354.82503 682.69887 -650.86580 627.24881 574.98628 -534.15687 1
-69.04246 -107.99125 -484.15360 307.33511 277.03403 -97.71222 162.87096 337.68209 -409.13421 -419.88128 492.74449 -297.04990 406.24429 466.53306 560.46848 -66.82541 316.70965 -179.11747 334.64097 0
387.03527 91.97534 -772.20813 352.57708 227.90423 435.63127 178.57044 -316.87467 -307.30378 -88.30792 749.84750 -208.69700 -215.46962 -558.60992 -445.24629 497.81425 -170.57293 -242.37979 311.39587 0
79.65162 92.61146 -365.14373 -143.23909 328.57836 -112.63583 207.43284 515.60583 -440.96655 497.86160 -33.83264 244.48841 123.12120 241.67110 -220.53886 -69.84142 299.83374 128.02973 -544.10763 0
143.15236 -194.13385 700.17119 -195.12541 44.91907 -658.49446 142.51226 -130.24358 -115.28492 407.13459 532.59101 -381.88974 180.41492 -464.61971 -457.81606 175.83258 149.76453 -264.00035 192.42761 0
129.78559 -118.27042 -477.58130 377.60690 123.63728 -119.50430 243.24959 373.55757 -478.05637 -518.89236 340.99922 107.43017 378.68587 480.60102 253.92596 47.23614 381.16950 454.48802 79.50553 0
83.24878 512.12237 -360.81046 661.62423 279.70285 -641.19414 -275.08236 904.95148 -244.68313 292.95114 -307.84611 543.43140 123.42830 157.62061 19.75801 90.38280 318.65541 -204.79353 -345.81573 0
110.58779 203.39589 -368.39243 -132.05901 246.42909 -617.18608 348.31227 -155.48475 -359.32134 235.73081 213.47870 553.62466 122.45868 241.48628 13.65993 66.05982 379.50995 102.09933 -316.83070 0
-680.51139 105.96383 -208.33459 -309.93788 -512.21909 127.90043 308.27287 -332.86278 618.46333 -155.05150 320.81494 -554.84102 218.89378 102.10154 -35.65768 603.74107 119.62705 -306.30703 -232.08689 0
221.25556 -120.06629 -355.36974 -438.18921 420.34034 113.69184 -270.17021 -326.06940 428.00830 -191.50640 -383.04113 144.59226 -383.59689 215.24589 -582.36513 -544.12226 104.62925 -409.26454 -667.99755 0
138.55524 -62.73293 -405.53532 373.70378 58.19408 -60.15615 165.04494 385.41214 -290.81621 -451.52220 502.52199 -209.59859 408.74473 480.42868 218.87471 -216.86381 326.50440 -274.82189 5.46850 0
278.56431 -192.57136 -391.59436 -593.13611 678.64381 252.83380 -277.64128 -248.02013 423.01230 -187.23255 -79.00174 141.48980 -200.50320 232.99942 -2.52429 -800.44284 728.81372 -332.82750 -780.58494 0
153.53137 221.47921 476.72502 594.05432 -300.19540 425.26133 318.45010 -180.58977 -572.64240 -283.98530 331.24123 748.87645 596.29091 206.18821 184.59434 -339.15012 130.58472 -438.50370 192.22401 0
-250.14047 292.08801 -50.77085 -338.93679 -504.54896 13.14433 176.30598 -64.59863 430.54097 -132.29305 289.67756 -203.18908 98.99167 112.50308 93.57562 425.35004 -241.95000 -221.17575 -397.06846 0
-71.06793 29.53214 17.90327 -635.12037 -826.22027 -294.19410 54.58329 -111.01482 -107.77184 56.58910 -218.95305 253.20425 248.66197 378.48104 -383.11243 477.14458 30.06763 -725.00502 307.49659 0
58.09304 445.10109 -498.21224 305.32365 290.70294 -500.06958 -156.71459 492.91735 -403.76635 220.03118 124.21966 536.02359 127.01171 1022.69375 -504.40139 -73.97179 820.65239 -238.87771 -421.79659 0
-559.06010 156.17771 -87.05469 -246.04498 -449.86387 97.37357 421.96951 63.71765 510.82957 -395.65589 -52.07786 -219.15790 95.71126 112.34476 60.16930 369.50863 -95.77009 -194.74158 -329.95764 0
-178.10566 -171.19999 52.27416 -360.95474 -525.60094 -352.24556 103.55055 8.13137 -409.04425 -1.26280 -283.28626 152.67138 251.16993 634.70464 -376.25265 538.27874 38.15807 -279.02312 259.17948 0
-316.97350 349.88834 -283.01427 -397.01562 -505.36383 -79.02162 206.32436 80.44343 42.91626 -36.99700 235.74111 -1.77542 114.60068 114.25220 -301.60943 521.62697 -204.82818 -292.23978 -437.34404 0
117.65538 112.96919 -230.06252 -25.85498 318.25867 -360.41819 -86.03716 351.44854 -386.28942 233.76783 40.60003 382.25283 124.78997 626.90659 -51.23940 -83.35497 505.50900 225.00500 -346.88641 0
268.31399 155.41038 348.47660 359.78163 -297.26746 428.07994 -62.69031 -278.37825 -205.05225 -186.37708 329.32376 377.01346 579.87659 -337.02781 175.32582 -315.34746 122.02249 48.86519 273.06339 0
-305.28960 78.06846 160.68365 -507.47011 32.52751 272.23503 -316.51998 -58.96519 21.20112 -246.71421 -126.75306 17.29851 316.88941 427.38256 352.48998 -35.54217 346.12197 419.10530 -102.79588 0
462.04394 513.67941 -517.56878 -222.32496 106.15083 31.07032 -270.87321 435.31171 42.94606 579.07318 -41.27587 -79.53368 188.74048 565.70417 189.53251 381.16561 229.18262 -27.75699 54.90646 0
147.48010 100.04091 -422.24573 222.78252 267.72770 -201.02980 -164.04722 705.41549 -154.96132 279.74012 199.50200 275.86315 128.04351 -273.82067 -300.01237 -386.48780 382.41330 110.60621 -506.23380 0
-450.83508 518.79038 -251.62928 -307.26466 -469.75498 562.29348 327.33851 166.40630 831.54898 51.14872 41.71844 -191.78890 47.11126 108.02013 -521.65833 123.43965 38.37653 -549.98811 -296.09539 0
183.46988 607.80002 -392.87641 -143.64341 -148.97310 252.61891 437.63047 246.88843 -150.70308 569.55503 317.43907 416.73846 -150.08990 -345.02310 353.24286 -583.34421 384.57234 279.51668 68.84539 0
585.60132 736.66734 231.55442 -548.87474 -79.99524 -156.45846 456.01337 -373.86087 729.72612 -12.50738 -242.67918 -594.43554 316.86849 400.79227 -368.12261 -702.58921 -177.87237 -307.26411 150.24952 1
13.44861 -108.43731 -264.64225 -463.48040 476.10576 263.59709 -262.11294 -112.29483 420.53163 -191.28701 -166.84148 139.37843 -337.59111 -136.18270 -425.40127 -532.55436 526.95811 -514.19362 -646.93506 0
453.99530 -432.32248 300.17126 -185.85660 96.80416 -427.08740 398.61737 186.81420 146.12570 470.30878 242.06298 -344.69144 159.21297 -453.18133 -564.67641 206.56411 464.09987 -249.31127 206.59483 0
-445.43691 527.61069 -355.08991 -259.87985 -461.89696 91.69424 400.70816 -204.80014 386.18807 -165.40288 303.42842 -591.37708 311.94049 103.05618 -53.29746 470.71571 53.40592 -305.84737 -207.97552 0
230.91966 -26.97382 -459.02864 309.44806 113.70183 -13.95841 296.14140 306.26323 -64.20064 -326.66173 371.88680 -394.76215 404.79691 494.82956 521.26608 -334.53941 342.92906 -195.85453 -100.00292 0
-301.66111 195.29843 189.40240 -112.92875 15.48818 184.39954 -327.28472 -64.36093 -1.89806 -162.81532 64.00751 411.64577 257.63818 309.68918 356.87221 -317.77807 220.41107 444.91253 -195.79179 0
98.81210 526.97613 -291.95017 369.01664 353.73515 -833.91964 -105.42094 881.57756 -351.10284 324.50005 -87.00130 568.72477 116.35050 136.98621 -272.16178 22.57677 341.47514 -117.17983 -327.09078 0
225.66054 -127.32462 -228.93241 -465.76784 221.12092 368.67545 -248.99108 -175.58420 443.74196 -194.14201 -395.44737 140.72814 -341.27088 -107.78174 -263.22163 -537.47686 86.54197 -293.90416 -729.67244 0
161.92684 411.52686 -11.71554 -159.09591 -158.60050 281.12747 606.58586 220.03325 20.59385 378.75102 503.38314 408.30540 295.07639 -4.01558 328.85331 -366.60684 166.80439 469.70126 13.01045 0
-110.19017 -57.68240 -41.71017 -636.32020 -522.87813 -370.69649 -28.65943 -78.15640 43.45516 -18.81183 -355.77831 82.55090 258.07852 203.48529 -331.74676 552.27555 74.85697 -403.09291 234.20785 0
82.73634 240.11568 -285.52889 113.87425 285.51518 -381.87797 -180.77806 399.75476 -386.34076 251.51463 -161.30080 394.22102 118.77414 516.14345 -87.32122 111.12880 338.26890 -61.46190 -273.97687 0
-504.36754 -210.44009 -571.66131 521.99299 -398.06722 -739.36946 573.22793 -525.44711 64.30918 314.66452 -170.08661 649.04037 580.79341 483.34479 91.27251 -659.05639 148.64416 165.81258 -384.00996 1
-416.11042 163.13185 -454.20462 -588.09925 42.38862 220.85732 -326.84834 -166.45660 25.98005 -282.67692 -90.60149 215.71617 471.82792 377.49629 317.65345 -18.54084 -232.42588 137.93714 66.64980 0
-334.77815 172.70315 -130.47449 -449.37724 -496.08386 264.15996 105.91597 132.77212 711.86095 -343.61344 8.73043 107.75487 95.35811 112.07843 -267.04583 420.87491 229.24332 -235.41213 -368.15323 0
-419.84642 213.79492 274.38402 -394.97200 10.73096 148.45081 -372.64909 -380.32285 17.27645 -219.24561 77.97867 343.81651 269.14352 444.30223 320.77530 77.97151 50.99457 443.95852 -91.97708 0
80.72507 -158.01908 -321.17598 -226.77602 285.49770 -944.71145 40.33808 293.33928 -260.93586 219.05370 18.15760 162.71416 126.75815 447.86448 -322.25570 -270.67478 788.48276 -147.03178 -291.69457 0
216.35488 150.06301 432.25486 442.74763 -366.38246 428.13282 183.38408 -372.45119 -571.70953 64.60643 329.07461 698.63284 532.29934 -223.75163 178.13530 -260.61261 121.19330 -194.08101 679.12235 0
-124.78908 33.46504 -47.00736 310.78299 13.36240 -106.02008 -406.44112 202.49028 179.33840 334.21295 372.73646 70.84719 -221.75366 -222.67042 71.64162 526.71499 -553.05465 -326.03049 313.63528 0
589.00560 -536.07562 231.02120 340.27130 131.95666 -458.06414 376.82872 43.12405 293.81234 262.96662 510.53849 -395.41297 150.25894 -328.26206 -507.16855 139.09130 409.90811 -210.72314 79.47400 0
70.28916 331.17972 -95.72903 -122.07408 -55.15453 425.17910 363.44598 -287.89364 375.57261 165.76633 148.71942 369.08730 162.20637 465.21764 -151.25087 -341.81399 -414.84549 -400.25042 -515.44155 0
405.20959 -167.21299 -297.44946 -304.10292 636.13797 189.94108 -289.62132 -176.63814 522.10738 -189.15699 -53.21551 140.77511 -271.52919 190.26376 -349.96789 -603.36993 526.17059 -361.76070 -542.03787 0
99.42975 63.16614 -84.84060 -103.84732 6.65991 747.91497 734.05656 -166.38152 607.96923 -36.77654 258.58298 538.89817 121.82307 553.51538 -324.38750 41.17327 -464.81317 -184.82011 -500.46923 0
-470.39215 324.59399 -43.08075 -432.36060 -406.80212 160.63681 596.37333 -81.98762 873.14483 -130.85933 271.61033 -98.41838 327.24909 100.21384 -371.85355 291.99545 55.33337 -298.30142 -615.24882 0
362.28409 -642.60284 313.18902 -275.80182 84.96118 -305.82006 216.93987 -7.00355 24.49716 325.78009 533.38022 -399.24373 153.90808 -91.96019 -372.45672 178.71121 559.12871 -214.47253 77.94805 0
22.90316 343.42272 92.54624 -488.72198 -88.34171 -125.17732 -450.15651 551.22634 418.48418 271.10114 382.68498 168.55330 177.59188 170.31832 412.67680 257.97600 370.44082 -59.64730 -167.62507 0
337.83873 107.15143 -184.15165 388.74705 -109.33970 440.13271 253.32543 -263.49827 -204.64126 -193.52187 660.93832 -252.59253 -67.28134 -786.29954 -338.32633 501.72699 -186.99652 -245.61366 388.06575 0
136.94913 269.19756 -82.25103 -138.30430 58.71167 106.69541 659.24406 -192.72254 166.81221 -216.02177 230.58708 66.93879 51.54427 343.37108 -400.28750 -297.48641 -391.96582 -18.07818 -412.87279 0
457.50688 73.86425 -414.10397 431.34425 94.16340 -135.22747 232.94825 395.05791 -304.45175 -486.82649 340.74576 -599.15858 457.22729 468.44928 517.87662 96.23783 180.88503 159.95303 -66.51631 0
-170.60557 255.72831 -82.85924 -391.43560 -369.95321 -151.32587 177.24497 -25.55378 31.45441 67.64623 42.03725 -3.16376 247.27892 515.97242 -389.27473 424.79536 51.63169 -569.67144 195.71381 0
-232.29913 141.65645 174.16164 -263.96128 -210.10566 -174.12386 -589.33650 654.29180 211.20800 283.63436 252.35466 -110.80785 186.54990 154.50993 41.24887 8.13234 599.48785 -29.77905 -93.29848 0
188.73669 169.80758 190.39631 386.55127 -7.84390 83.76663 -375.36118 200.32121 214.11614 458.91422 426.99449 87.49443 -566.50979 498.35846 211.25236 546.00630 -80.64577 60.49727 20.20427 0
583.73367 -628.07589 29.39222 -353.38383 54.38042 -232.63774 316.62218 414.24455 -69.01225 415.18385 543.88198 -255.82165 284.65993 -240.98135 -224.02797 300.95225 599.62733 -228.17158 -283.09109 0
-29.99491 -569.39060 -34.15642 -478.62937 -181.95005 -427.17162 417.51118 -394.10577 124.88803 67.36863 -222.37533 142.31729 261.95245 16.03068 -429.29297 458.57780 6.10733 -659.19940 62.66160 0
-183.53049 306.75324 -40.87817 -453.27816 -363.93416 -353.73805 -44.91807 -31.49862 -190.51504 27.76582 -323.96865 74.96392 239.42106 360.24516 -391.79989 502.95112 22.25256 -514.94914 52.08833 0
-666.87694 511.22321 -744.95651 -515.55854 -606.88896 -108.84174 -309.38195 647.91785 89.45426 618.95853 -141.91637 -676.36734 -564.39786 54.24175 406.66895 605.98580 -171.60937 261.26053 -587.83890 1
-523.50156 463.90346 -177.79587 -293.62400 -446.09234 -87.42477 217.73616 139.24782 471.37873 -101.39813 526.13755 -431.86689 247.90299 103.53385 -36.17417 281.86120 -314.01459 -261.91453 -223.92424 0
184.88128 519.01688 252.03502 -117.99531 -237.72942 113.88029 126.47576 183.61166 276.61227 564.91575 330.46048 410.79540 92.37722 -268.59291 385.54627 -434.94548 453.94645 -29.92840 68.47839 0
507.52987 632.06831 -210.46276 -0.27521 127.88017 -39.84511 -234.87380 502.40937 150.02477 582.10260 -4.12873 -94.60196 588.23775 422.12170 217.73708 315.36987 667.04593 -401.23362 -30.44169 0
-384.32468 480.99713 108.06347 -389.21806 -221.60028 -103.71580 -513.43706 312.86842 4.86167 205.15068 -86.65329 261.60906 419.89848 308.16683 786.34822 83.36938 547.96491 -101.93186 -144.77189 0
-167.50140 364.61511 15.24123 -406.43955 -213.90554 -209.28814 -483.13100 406.36949 410.30010 295.02794 411.65669 5.68121 395.23041 170.53434 882.64084 77.52192 102.10281 -206.22245 -202.36187 0
270.61577 -19.39511 -431.05275 419.31231 206.91989 -122.92772 233.71777 338.60688 -482.13671 -454.44416 353.13760 -145.71537 423.16008 467.26894 427.16002 -229.76054 282.89150 115.16470 28.71692 0
98.22656 406.66141 -277.59983 220.38195 271.08465 -479.17433 -493.32894 949.97918 -357.15206 403.83072 -5.28154 471.54250 127.17040 250.37301 -508.28404 134.92005 416.51375 -104.67430 -527.52429 0
193.81892 185.14568 -200.49125 225.36033 530.75283 20.67052 -478.80879 158.87952 224.48522 447.29635 462.32208 -8.54661 -320.26004 107.06454 312.15376 210.36760 -426.45319 -214.99235 125.61456 0
84.97894 386.94216 -414.65572 -23.97531 276.70747 -128.06621 17.77146 583.36901 -524.49939 80.20019 -270.44856 130.77167 123.23286 -147.63312 -54.10037 -692.06265 749.28911 -53.22324 -365.91397 0
340.70542 -145.00731 -260.90419 -374.81388 494.84841 204.55172 -254.70801 -214.26543 478.84512 -191.20505 -392.99705 138.29617 -336.57926 -241.57043 -753.94131 -413.62724 819.25293 -275.69553 -482.77809 0
-65.53649 536.28420 -358.37655 691.84731 -163.75223 -404.39503 -72.46958 -177.55198 -672.87195 -503.60342 -411.94480 490.72370 -128.17384 349.15644 132.12794 -26.70049 581.01326 612.98948 617.76108 1
-683.15382 429.86163 60.55842 -383.55045 -120.91593 -240.12352 -572.44663 713.74271 107.52733 203.34060 532.65886 65.17285 381.75676 -254.22392 288.48784 190.74423 407.09407 -7.46981 -34.45760 0
121.03286 219.61352 -349.03750 417.78651 302.20268 -207.56814 -218.92108 283.13150 -254.29227 142.41306 40.83613 532.27408 119.18890 312.28142 -358.68777 -205.80432 615.16706 216.72718 150.13468 0
-386.72892 417.03418 16.53797 -269.94075 -161.56158 -146.26205 -604.06904 486.63270 277.89853 273.69546 576.84668 360.28404 363.89017 128.29567 570.02759 190.21922 528.02939 17.57329 -83.53876 0
-29.38936 116.95911 -235.68177 276.56534 31.89017 -461.09103 -730.39123 225.06345 344.19706 400.77217 206.30176 71.48995 -252.47174 394.53612 397.95318 613.98322 -235.89025 -46.91194 76.12598 0
-427.54090 76.00089 -101.75425 -681.58243 43.00705 309.10917 -375.50639 -550.63805 4.37450 -302.03221 -65.56142 557.75529 282.68787 101.97159 352.47818 -345.50613 135.67691 270.64049 -32.22446 0
-177.42085 188.72868 24.33770 -370.09458 -540.70408 -288.45122 223.63021 181.64674 -95.13227 38.59383 -222.11869 16.26253 249.69314 319.50126 -355.20803 463.20938 56.14958 -496.07955 -54.52577 0
227.24548 -181.62347 -270.68069 -441.83967 360.29702 318.44788 -310.50626 -141.36814 525.63929 -190.28686 -244.86581 148.82986 -367.08851 -20.84576 -484.20418 -564.97287 487.40963 -419.68287 -501.25004 0
245.13979 353.07905 -44.47716 -85.01149 -65.29871 546.83107 273.29915 -117.17133 388.70304 329.44381 84.55853 19.22186 232.49221 1043.60461 -119.87324 128.20944 -500.13527 -374.68493 -202.50326 0
304.28009 67.55307 -317.40904 528.05747 316.20096 437.66178 427.44172 -220.00335 -240.34606 -168.51060 479.73674 -188.06817 -138.62616 -652.58781 -312.28138 505.15556 -152.03179 -289.39052 -125.66750 0
-638.51011 240.63452 -57.83500 -307.82108 -522.68627 128.46054 440.20347 -57.88888 446.06923 2.05925 80.27116 371.23613 26.36335 107.02880 -180.73805 293.29292 -15.24443 -291.61026 -384.47219 0
-101.65972 219.65779 -302.25682 -537.68843 29.16291 265.56948 -437.17482 -30.38575 8.20299 -276.25301 -391.41646 477.75545 262.45563 340.72142 334.39743 -201.43474 104.27661 249.84619 -69.93460 0
592.43947 -535.26375 450.53222 -119.87145 37.16177 -465.73813 257.91317 195.80319 84.57910 308.50469 406.21155 -435.91866 90.98868 -143.94951 -496.61622 177.03210 534.80222 -237.35825 -109.71804 0
-164.49210 814.33007 13.81415 -242.96587 -600.44005 -498.75959 10.96532 148.73865 -107.58594 142.05002 -119.42836 48.46390 246.31575 180.37336 -391.24969 561.59749 20.64665 -346.03777 67.97545 0
197.76311 373.87611 411.45436 500.72848 -210.15839 430.62508 320.46296 -320.64019 -143.27985 -121.21356 332.13090 386.92200 282.64381 -98.93006 183.63259 -322.75455 121.51052 -250.66894 184.72195 0
527.58727 413.32395 193.62574 132.59059 98.25391 -477.99808 -233.83984 557.18402 -27.15239 447.07328 -29.81028 -101.74394 299.56198 457.80447 166.98039 71.24919 670.86925 -214.05356 234.54528 0
326.04676 508.32648 -209.59847 -152.77095 227.09892 -638.62677 -673.67669 -738.93399 107.63072 -491.86398 -287.18858 -33.91297 -698.34384 316.22367 89.70120 -486.51551 462.75062 642.53677 -493.51004 1
264.30030 100.54377 431.09965 266.16175 -361.20504 431.61149 233.49411 -384.92612 -149.46150 -237.34096 329.47655 417.14539 419.44141 -105.73674 180.12794 -449.93676 114.14098 -629.45753 396.39521 0
-334.06463 348.97118 76.53203 -431.78936 -531.86452 83.28970 383.06729 -274.99131 474.96499 -210.35728 -90.05246 -121.07852 78.46985 108.53913 -274.43241 230.56028 65.42198 -144.51517 -337.53963 0
152.96753 264.46806 139.90919 -237.04885 -148.85761 -173.49967 -547.71183 239.54027 253.24773 296.05174 528.38176 34.16478 229.72668 114.96789 315.65807 54.53248 280.76996 216.49564 -82.58247 0
-683.61792 287.98472 -172.87252 -272.62962 -484.27858 -100.04523 379.42046 -95.32976 424.47071 -312.72801 178.06598 -129.77575 308.68076 106.46361 -16.48802 215.96286 218.25460 -335.85662 -136.55826 0
